1.674198794754903075e-01,8.350754939564547508e-01,2.002170778121685202e-01,-2.201353274861343745e-01,-9.148521483692495515e-01,5.108778425161831782e-01,-4.357658601960508471e-01,-4.142274295685766661e-01,-9.669690929755098141e-01,-8.618186278482351526e-01,1.326143873883886437e+00,6.082860576048464418e-01,-7.375867293160677240e-01,-7.901924120688608166e-01,-4.844987031894926743e-01,-1.319029004467261901e+00,-3.688265385352183512e-01,-1.652187277189476056e-01,-1.152695320072670393e+00,7.679660622145801918e-01,-2.474602884014396875e-01,-1.916073936617138096e-01,1.783014190142102537e-02,7.191960691789971161e-02,1.679726119796662032e-01,1.476874508874194136e+00,9.428772051290194856e-02,2.469836145183847420e-01,6.437014287209740226e-01,-2.299247586939938970e-01,4.064776606213187926e-01,-3.359545529258074481e-01,-1.044841570039208190e+00,5.305619620055634922e-02,-2.117073950733295573e-01,-9.978651426540278979e-02,1.924687870199236206e-01,8.960927572979867639e-01,-6.839198350427391215e-01,-6.667238396118677635e-01,1.036161904679839374e+00,-2.278480448133589908e-01,3.470044065060430838e-01,-6.431355053480982686e-01,3.329817333946682445e-01,-8.338651261134674697e-02,9.448574775782924151e-01,2.455953624754722009e-01,-4.053277917917778583e-01,-7.257039261838452715e-01,2.543204601510148932e-01,-6.128505298019394365e-01,8.129405633042565693e-01,-3.675960958650301147e-01,-7.767876936330100901e-02,-2.092767329845281132e+00,2.694042599115311076e-01,1.593694005710440953e-01,-1.340346304483739148e+00,-6.679334744809577451e-01,-3.080129234758351986e-01,-8.528136386482982889e-01,1.681023124324449169e-01,7.002298267558102474e-01,6.404694220940158056e-01,3.947120315190500439e-01,1.790175143429515892e+00,-3.495097794782459771e-02,-5.803650205501114101e-01,-1.626871593467045241e+00,1.626092399692654178e+00,2.968380593947698709e-01,4.044196841378036034e-01,7.185834794393801406e-02,-1.922900895795508491e-01,-3.245746558777202195e-01,-4.470272897209799923e-01,-6.568621741880825704e-01,-5.828754829585023334e-01,5.307189639541025628e-01,-8.715784471886443008e-01,1.368716914499298054e-01,-3.063677687247055026e-01,-2.982250117097522968e-01,-1.588648521902403798e-01,-3.404794216330765955e-01,-4.018626733677872656e-04,-1.609686830787405432e-01,-3.494752372754982850e-01,-3.939341613469309750e-02,-1.157256719160923542e+00,6.330079406595980895e-01,-5.245512757391128655e-01,8.865371444004044310e-01,2.119125895084899291e-01,-7.747122958031251727e-01,-5.740276514268710661e-02,-3.573009944778841041e-01,-4.832815609253767186e-01,9.740017838164866104e-01
-1.569200000000000039e-01,1.116599999999999954e-01,5.735500000000000043e-01,6.371299999999999741e-01,3.972300000000000275e-01,6.394699999999999829e-01,-1.330500000000000016e+00,-1.631599999999999995e-01,1.245000000000000107e+00,-3.522899999999999920e-01,8.069800000000000306e-01,3.952999999999999847e-01,-5.228200000000000208e-02,-1.979499999999999871e-01,4.169300000000000228e-01,-3.627400000000000069e-01,5.817900000000000293e-01,2.471399999999999986e-01,9.397800000000000598e-02,5.863399999999999862e-02,-9.837500000000000133e-01,1.894800000000000095e-01,8.986800000000000344e-01,1.829300000000000093e-01,-6.217099999999999849e-01,-3.145899999999999808e-01,1.546099999999999974e-01,4.130600000000000244e-02,-4.494099999999999762e-01,7.571700000000000097e-01,5.348199999999999621e-01,1.817400000000000126e-01,1.574899999999999911e-02,-2.304900000000000004e-01,5.922199999999999687e-01,-5.827200000000000157e-01,-4.608700000000000019e-01,3.265799999999999814e-01,-2.426099999999999923e-01,3.379400000000000182e-01,-1.001200000000000007e-01,7.235200000000000520e-01,-6.341499999999999915e-02,7.008999999999999675e-01,-3.648500000000000076e-01,5.281599999999999628e-01,2.610099999999999920e-02,-2.337700000000000056e-01,3.545300000000000118e-01,3.309099999999999819e-01,4.073599999999999999e-01,6.681599999999999762e-01,-4.431399999999999784e-01,8.416899999999999382e-02,-1.398399999999999921e-01,4.667500000000000121e-02,5.309599999999999875e-01,-3.637299999999999978e-01,7.428299999999999903e-01,-5.580100000000000060e-01,-6.201100000000000501e-01,9.629899999999999571e-02,3.423099999999999754e-02,2.707999999999999852e-01,-1.929200000000000081e-01,3.908900000000000152e-01,6.413200000000000012e-01,-6.571900000000000519e-01,7.175899999999999501e-01,-3.951700000000000212e-01,-4.892699999999999827e-01,6.084200000000000025e-02,4.078300000000000258e-01,-3.326000000000000068e-01,2.060800000000000132e-01,2.857199999999999740e-01,-1.313300000000000023e-01,1.595199999999999951e-01,-4.811699999999999866e-01,-1.640800000000000036e-01,5.467100000000000293e-01,2.205900000000000083e-01,-7.766600000000000170e-01,5.432800000000000129e-02,-1.000499999999999945e+00,3.945100000000000273e-01,2.364799999999999958e-01,9.202799999999999869e-02,-3.623399999999999954e-01,-6.016500000000000146e-03,-2.446000000000000119e-01,3.589999999999999858e-01,7.308499999999999996e-01,-6.631200000000000427e-01,7.760799999999999921e-01,-2.874700000000000033e-01,4.774300000000000210e-01,1.552199999999999969e-01,7.805800000000000516e-01,1.023199999999999943e-01
-3.482700000000000240e-01,-1.747500000000000095e-02,-5.082600000000000451e-01,1.212799999999999989e-01,-1.442799999999999985e-02,9.174600000000000533e-01,-1.441399999999999973e-02,-3.422600000000000087e-01,4.966800000000000104e-01,2.484699999999999964e-01,-4.402599999999999847e-01,-7.062899999999999734e-01,-4.863399999999999945e-01,-4.371499999999999830e-01,2.026100000000000123e-01,4.687000000000000055e-01,-6.741700000000000470e-01,3.848699999999999899e-01,-5.675299999999999789e-02,1.031900000000000039e+00,-6.549099999999999921e-01,-1.555900000000000061e-01,4.596799999999999775e-01,4.384500000000000064e-01,5.175400000000000000e-01,-1.571200000000000027e-02,1.549000000000000099e-01,1.668800000000000006e-01,-3.603500000000000036e-01,-4.079800000000000093e-02,-6.000199999999999978e-02,6.021499999999999631e-01,-6.705999999999999739e-01,4.459799999999999875e-01,-2.246499999999999886e-01,-3.885899999999999858e-03,2.079199999999999937e-01,-8.825100000000000167e-01,3.426600000000000201e-01,3.678699999999999748e-01,-1.589000000000000135e-01,-4.070200000000000207e-02,-1.733800000000000063e-01,1.863200000000000134e-01,1.852199999999999958e-01,-2.085700000000000054e-01,3.096599999999999908e-01,2.849200000000000066e-01,-3.171800000000000314e-02,5.378899999999999793e-01,-5.255699999999999816e-01,4.364100000000000201e-01,-3.507899999999999907e-01,-3.347599999999999881e-02,2.720600000000000240e-01,6.549300000000000122e-01,-4.452499999999999861e-03,-6.467100000000000626e-02,-8.258800000000000169e-03,-1.597699999999999954e-01,-2.618399999999999894e-02,-6.893500000000000183e-01,-7.661200000000000232e-01,-3.482299999999999840e-01,2.761100000000000221e-01,-9.700899999999999801e-02,1.034500000000000003e-01,2.140499999999999903e-01,2.209299999999999875e-01,-1.904000000000000137e-01,4.212300000000000072e-02,4.213699999999999911e-03,1.110700000000000021e+00,7.788800000000000168e-01,-1.088599999999999984e-01,4.876400000000000179e-01,3.215600000000000125e-01,1.047900000000000054e+00,-2.229599999999999915e-01,-1.501099999999999934e-01,-2.435199999999999865e-01,-1.892600000000000116e-01,-4.491999999999999882e-01,-7.033800000000000052e-01,8.530799999999999494e-01,1.090799999999999992e+00,5.818799999999999528e-01,-4.319699999999999929e-02,2.119600000000000095e-01,5.102400000000000269e-01,5.541700000000000514e-01,9.940499999999999892e-01,-8.332399999999999529e-02,3.082900000000000085e-01,1.875900000000000067e-01,-5.709899999999999975e-01,-2.117700000000000138e-01,2.370599999999999929e-01,9.176800000000000235e-02,-4.461200000000000165e-01
1.740669137532854516e-01,8.483015610534718753e-01,1.906939576141584818e-03,-3.355978925807367452e-01,8.518332745175246634e-01,-4.802410488163904034e-01,-2.753143515609290382e-01,2.406952064446114536e-01,-5.417327715209201422e-01,-8.615823600545603478e-01,-6.031034268455232050e-01,2.814301122372513397e-01,-1.103629207624631653e-01,-4.397475590787539718e-02,4.441741633901802322e-01,3.320240292554038630e-01,1.937010932908478644e-01,3.261250562841305212e-01,1.087981452522752968e-01,3.793618039678797044e-02,-1.005481600808591086e-01,4.040232430280204512e-01,9.142412694604944434e-01,6.513353283604765842e-01,-7.152953550287850515e-01,-2.552789442153726718e-01,6.341677004304877574e-01,1.172044449565388557e+00,1.111143850206452344e+00,3.568259547109399743e-01,1.024410949459155562e+00,3.638566248765753297e-01,-7.278317145855857095e-01,5.247846095287439505e-01,4.374127506660160231e-02,2.308675302311947175e-01,-9.032647274684464378e-01,-1.876337236569753653e-01,9.518605661009119090e-02,-9.251443200813357359e-01,-1.193277016714471284e+00,-4.683695695089703515e-01,-2.010692413650986277e-01,1.026603920665043468e+00,8.326580205048610128e-02,1.340626170857269761e-01,-6.303097693407061497e-01,5.695915652569201182e-01,-1.959598267924270443e-01,3.822480056280306848e-01,7.671033327765868215e-01,6.589220454413399763e-02,-6.182152843178044810e-01,-1.113511098846746927e+00,1.369972479249969233e+00,-2.719455591766536950e-01,-8.344055641540505386e-01,1.001214090057997996e+00,1.228983035614948233e-01,-5.911658719966916831e-01,8.769009104848597691e-02,-9.211978798242095312e-01,7.958875393052435021e-02,-6.110409866546865354e-01,2.690441831399987827e-01,7.322770034321256505e-01,-1.565869906338594464e-01,1.039997301395590323e+00,-5.808939027964618029e-01,3.155389184888685028e-01,-5.842829090128359715e-01,4.283328131565917740e-01,4.347515932494962487e-01,-8.604170746196233566e-01,7.697223047325825462e-02,2.714041712507542781e-01,-6.134759364864161152e-02,5.119422110982666529e-01,1.667557871027899180e-02,-3.254190119895045141e-01,-5.572548902547928007e-01,1.602951468473436947e+00,-6.248069176257692314e-01,2.180398067315471866e-01,8.843129916074846109e-02,7.118871246756108828e-01,1.112445118269290018e-01,-2.042476616698297442e-01,-6.015531868181375197e-01,-3.806699219078396035e-01,-1.160770626187680898e+00,-6.136426889433779230e-01,-3.346545579874882770e-01,-1.293975135719213632e-01,5.628502992519827108e-01,-6.658709608748735187e-01,-6.153264378938851920e-01,5.600039360557252932e-01,2.466084399403811467e-01,-6.163445340493421964e-01
1.163217395718412206e+00,-1.148810158173779600e-01,-4.317924106600090628e-01,1.150109504149200157e-01,3.689572183836414276e-01,9.689542780827987978e-02,1.276120552562040711e+00,-9.055677747519697007e-01,-7.830312854541090495e-01,-1.276992582715580637e-01,1.627621622048678607e-01,-1.648128968903156133e-01,-2.417123052812022999e-01,-5.379209182945087209e-01,5.552546033154600602e-01,-2.085025647309942665e-01,5.694842489170907074e-01,-4.982689333271761445e-01,-1.022542662567905047e+00,-7.233870453898059161e-01,-4.175032901466046442e-01,6.635325026663400072e-01,-9.685718756859860168e-01,-2.258054402899976887e-01,-5.163633404861484033e-01,1.167143448317564669e+00,-6.688522213818249851e-01,-1.814059874745172163e+00,6.163983285519446242e-02,-2.399318121888663891e-01,-4.846285379411724437e-01,7.118081587734839122e-01,-7.242251825750669614e-01,9.018546483845268913e-01,-7.720288290513226404e-01,5.338124324188475711e-01,-7.451037102985741400e-01,-1.600667205162028747e-02,1.063435186367211127e+00,7.484395033014275000e-01,-2.589228275751748742e-01,-2.633587362747400462e-01,-1.011701251979752358e+00,-2.117734601772263969e-01,8.659202203580300683e-01,7.771950758201816301e-02,8.075826172782989421e-01,8.273160167596652625e-01,8.016221896948293874e-03,4.648868835940720423e-01,-2.798875464887503606e-01,1.139898916486745961e-01,3.615003897895119334e-01,-1.273991262591022688e-01,2.903197662449938932e-01,-5.804716471129477418e-01,-6.769107912006252503e-01,-7.635641061443985966e-02,6.265232993018169383e-01,-2.012872924012539533e-01,9.840440813882253002e-01,-5.457616837925118869e-01,4.926146950211110487e-02,-2.660160345058672493e-01,-2.821821570466384044e-01,1.089790856159643662e+00,9.525779489157759627e-01,6.750806244496972974e-01,-5.265930539910146368e-01,-1.615549746577860935e-01,4.829143016954795531e-01,5.845696474933795989e-02,-3.603925985822677425e-01,-2.467236136241308664e-01,4.146157220370941948e-02,1.746435260940073508e-01,-1.345395787942164079e+00,4.916050273069120791e-01,-5.814798076625760093e-01,-3.117797237999948012e-01,-1.545514305673393762e+00,8.751478010014179798e-01,7.787149865519662484e-01,8.621163920688547089e-01,6.969206729954989799e-01,7.764078455691795222e-01,2.076367522645971575e-01,-2.070809096931253701e-01,-8.630980866314321709e-01,4.022002262399776984e-01,-3.965434136433936274e-01,-3.985880769644790100e-01,4.754187001337302487e-02,1.648095840244817312e-01,5.082901848055166871e-01,-1.317094019790858273e+00,-1.022264542463558357e+00,-3.096035294022176920e-01,7.922803507559423863e-01,-1.016343271518784119e+00
4.331100000000000227e-02,-3.014700000000000157e-01,1.619700000000000029e-01,2.818399999999999794e-01,-4.760699999999999932e-01,4.347300000000000053e-01,6.095199999999999507e-01,9.251899999999999569e-01,-8.047699999999999854e-01,-4.041399999999999992e-01,2.169600000000000001e-02,-7.263699999999999324e-02,1.343699999999999894e-01,-4.201799999999999979e-01,3.650700000000000056e-01,-5.457499999999999574e-01,-4.376399999999999735e-01,-6.191100000000000492e-01,-2.073200000000000043e-01,-5.479199999999999626e-01,5.214400000000000146e-01,4.308499999999999830e-02,-1.084200000000000025e-01,1.161800000000000055e-01,1.017799999999999955e-01,5.181800000000000295e-02,-1.634200000000000097e-01,2.658400000000000207e-01,-1.883900000000000158e-02,3.891399999999999859e-01,-5.641399999999999748e-01,-3.547299999999999898e-01,-2.344199999999999895e-01,3.201200000000000156e-01,-3.589499999999999913e-01,3.455300000000000038e-01,7.995099999999999776e-03,-4.215999999999999748e-01,5.379800000000000137e-01,1.275599999999999998e-02,-5.856999999999999984e-01,-8.422500000000000542e-01,2.531200000000000117e-01,3.002699999999999814e-01,-1.121199999999999974e-01,1.040800000000000058e-01,-4.157299999999999884e-01,-2.678300000000000125e-01,8.444500000000000339e-01,-1.342500000000000027e+00,2.426399999999999946e-01,-2.932199999999999807e-01,8.363699999999999468e-01,4.130699999999999927e-01,-2.109399999999999886e-01,-2.038300000000000001e+00,-7.027200000000000113e-01,2.729699999999999904e-01,1.872200000000000086e+00,7.384899999999999798e-01,-8.221100000000000074e-01,8.892600000000000504e-01,-5.384900000000000242e-01,-1.585699999999999887e-01,-5.956599999999999673e-01,-3.043399999999999994e-01,1.551400000000000001e-01,1.788700000000000012e-02,-4.641100000000000086e-02,-1.858100000000000029e-01,-5.300300000000000011e-01,-7.112500000000000488e-01,6.603100000000000636e-02,-5.849600000000000355e-01,-1.752100000000000046e-01,9.025699999999999834e-01,-4.980899999999999911e-02,-2.047799999999999968e-02,-4.100500000000000256e-01,-6.328400000000000691e-02,3.763799999999999923e-01,-3.543099999999999722e-02,-1.603400000000000103e-01,-4.788499999999999979e-01,-4.560400000000000009e-01,-4.535699999999999732e-01,-2.139099999999999890e-01,6.539500000000000313e-01,1.922099999999999920e-01,2.583300000000000041e-01,1.045299999999999896e+00,-5.643999999999999712e-02,-1.077400000000000024e-01,7.683400000000000230e-01,-1.176900000000000057e+00,8.670999999999999819e-01,1.930199999999999971e-01,4.017100000000000115e-01,5.329700000000000548e-01,3.102599999999999802e-01
-9.292099999999999319e-03,1.868599999999999983e-01,8.431400000000000006e-02,-2.681100000000000150e-01,-2.160799999999999943e-01,8.450600000000000334e-01,-7.373499999999999499e-01,-7.338400000000000478e-01,-1.081900000000000084e+00,3.984099999999999864e-01,1.330399999999999916e-01,-5.811800000000000299e-01,-5.320300000000000029e-01,-1.523299999999999932e-01,4.646500000000000075e-01,2.805000000000000271e-01,2.076899999999999927e-02,-2.033000000000000085e-01,-9.889999999999999902e-01,3.885500000000000065e-01,9.929799999999999738e-01,-4.749599999999999933e-01,5.175999999999999490e-01,8.546799999999999953e-01,7.000399999999999956e-01,9.401600000000000235e-02,1.397700000000000053e-01,-6.754099999999999548e-01,-2.366499999999999992e-01,2.273699999999999888e-01,1.626400000000000068e-01,3.317999999999999838e-01,3.372200000000000197e-01,-2.166500000000000092e-01,7.603399999999999742e-03,-3.951799999999999757e-01,-8.706600000000000450e-02,5.074399999999999744e-03,-5.457600000000000229e-01,5.927299999999999930e-02,-8.163000000000000256e-01,-4.949500000000000011e-01,2.930599999999999872e-01,-6.493200000000000083e-01,3.967499999999999916e-01,-6.712700000000000333e-01,7.900500000000000300e-01,-5.214199999999999946e-01,-4.373799999999999910e-01,-1.023500000000000076e+00,-7.925000000000000100e-02,8.578799999999999759e-01,1.008000000000000007e-01,1.625199999999999978e+00,-6.169199999999999684e-03,-2.253000000000000114e+00,9.042100000000000137e-02,-7.223399999999999821e-01,1.499600000000000044e+00,5.153699999999999948e-01,-7.926699999999999857e-01,-2.627200000000000091e-01,-2.726700000000000235e-01,3.268699999999999939e-01,2.148299999999999932e-01,2.840500000000000247e-01,2.227399999999999936e-01,7.756300000000000416e-01,-3.960500000000000131e-01,1.882500000000000007e-01,7.763599999999999668e-02,-7.938499999999999446e-01,-7.822099999999999609e-01,-5.282999999999999918e-01,-4.190900000000000181e-02,-1.236899999999999944e-01,-3.117699999999999916e-01,1.254699999999999982e-01,-1.402700000000000058e+00,7.901000000000000245e-01,1.408600000000000074e+00,-1.329400000000000026e-01,-7.432900000000000063e-01,4.818399999999999905e-01,-1.229300000000000059e+00,-7.205599999999999783e-01,-7.525500000000000522e-01,7.902200000000000335e-01,2.015099999999999947e-01,-3.758699999999999819e-01,-6.506499999999999506e-01,-6.823599999999999666e-01,-4.791000000000000258e-01,1.076300000000000034e+00,-3.221899999999999764e-02,-3.578100000000000169e-01,-5.334499999999999797e-01,7.017799999999999594e-01,5.655200000000000227e-01,-4.340899999999999759e-01
-1.020899999999999919e+00,-2.218199999999999894e-01,4.535100000000000242e-01,-1.112100000000000033e-01,3.088799999999999879e-02,-3.131599999999999939e-01,7.809099999999999375e-02,1.260900000000000076e-01,-7.910599999999999854e-01,4.888199999999999767e-01,5.134499999999999620e-01,-1.051399999999999890e+00,-1.405000000000000138e-01,5.033999999999999586e-01,5.147100000000000286e-02,-9.345499999999999918e-01,4.554099999999999815e-01,-5.135100000000000220e-01,-4.317100000000000104e-02,-3.854199999999999848e-01,4.800099999999999922e-01,2.508600000000000153e-03,4.976300000000000168e-01,-1.955399999999999916e-01,1.495799999999999907e-01,1.575400000000000134e-01,-2.399999999999999911e-01,2.755699999999999816e-01,7.808199999999999585e-01,-2.756799999999999806e-01,-2.835300000000000042e-01,7.238099999999999534e-01,-3.422100000000000142e-01,1.668800000000000006e-01,-2.396300000000000097e-01,5.799499999999999655e-01,5.013300000000000534e-01,2.451200000000000045e-01,4.054300000000000126e-01,1.176299999999999985e-01,-5.090700000000000225e-01,-3.269400000000000084e-01,-4.745699999999999918e-01,5.204600000000000337e-01,1.169999999999999929e+00,9.312000000000000277e-01,-1.716300000000000048e-01,-2.318300000000000083e-01,1.404199999999999893e-01,-8.603100000000000191e-01,1.765100000000000002e-01,4.848199999999999732e-01,-1.738500000000000045e-01,1.266599999999999948e+00,-4.141299999999999669e-03,-2.009199999999999875e+00,8.605099999999999971e-01,1.813500000000000112e-01,2.875000000000000000e+00,4.825300000000000145e-01,3.620399999999999729e-01,9.386999999999999789e-01,4.059699999999999975e-01,6.048200000000000243e-01,1.150499999999999995e-01,-5.746099999999999819e-02,-5.705099999999999755e-02,-8.130800000000000249e-01,-4.214399999999999813e-01,8.454599999999999893e-01,4.031799999999999828e-01,-1.613399999999999945e+00,5.036199999999999566e-01,-3.689799999999999747e-01,3.840399999999999925e-01,3.815700000000000203e-01,7.873599999999999488e-01,-9.356499999999999539e-02,-9.153200000000000225e-01,5.696700000000000097e-01,5.093400000000000150e-01,-6.448800000000000088e-01,1.003399999999999986e-01,5.187399999999999789e-01,-7.583199999999999941e-01,-2.964999999999999858e-01,7.901599999999999735e-01,1.556899999999999951e-01,2.082400000000000084e-01,2.562800000000000078e-01,1.985999999999999988e-01,-3.919500000000000206e-01,-2.665000000000000147e-01,2.272099999999999953e-01,-3.469200000000000061e-01,8.967899999999999761e-01,3.913100000000000085e-03,-5.829899999999999666e-02,2.524299999999999877e-01,1.753200000000000036e-01
-6.201121883602180723e-02,-3.442649602369688977e-01,5.272265929597668155e-01,-2.803760713968577178e-01,7.813683176991287338e-02,5.241989699170479522e-01,8.597657426282638848e-01,1.102506826733901518e-01,4.608101835310441374e-01,-3.085856536694112640e-01,-2.959164293485751496e-01,1.273780273741725588e-01,4.452200772712735510e-01,8.445420993817502886e-01,-1.455134607639356203e-01,3.720775689819494358e-02,6.615189054446303230e-01,3.030253109539596812e-01,-5.823889182345624027e-01,3.219278348059482764e-01,-6.132716998983441803e-01,-1.373763399746665004e-01,5.584826065826555830e-01,-2.934845739316961910e-01,-6.319808525005042865e-01,8.581298659640146376e-01,8.789839563016140778e-01,8.381523892140951837e-02,-2.238126712342502767e-01,-4.806737395377642663e-01,1.648785535716585648e-01,9.013584941603338535e-03,-6.777855467875789630e-01,1.452963959725958876e-01,1.740754263446838701e-01,8.431764566577447662e-01,-3.136289770200118565e-01,-3.754096076708030028e-01,-7.387028730495558415e-01,-9.348521900131662177e-01,2.342952512680050725e-01,-3.932777476970807373e-01,2.412239324301644894e-01,7.455110660968075065e-01,7.458595808524551840e-01,-1.874732043128501113e-01,6.018945101020209965e-01,-2.070291169966498313e-01,-4.058560673910998062e-01,9.589072002746501511e-01,-1.088888755996224866e-01,-5.594153210074239713e-01,1.271109623038124470e+00,1.032343311299138838e-01,7.405199567189489906e-01,-3.522222847383239541e-01,-8.931004929516770385e-01,1.977000552779419051e-01,-2.188302301124554206e-01,-1.176167386973327733e-01,-3.067409712482496165e-01,-2.079803145320549274e-01,4.597203178349901220e-01,3.637805550906482721e-01,-2.828137503957606769e-01,-6.882052144804652327e-01,8.167750739537535387e-02,2.666006452545342520e-01,-2.445115569955782497e-01,-5.461291644473389439e-01,8.491156639684979135e-01,5.566212067290347010e-01,5.598611144218900160e-01,1.662225168115729346e-01,6.355660723114012756e-01,-1.299821061462334837e-01,1.763967352633313834e-01,1.625264155294743551e+00,1.029635583791354420e-01,9.400370391069146070e-02,-5.505281679990957633e-01,-2.972136174226810423e-01,-1.421557186376353199e-01,2.651677062047237687e-02,-4.753427501539729261e-01,2.835457811557753338e-01,5.331778466832274299e-01,-1.319026467137094927e-01,6.424244497710944468e-02,3.182910249949186254e-01,8.604228295755993183e-02,7.727473056956528363e-02,-2.204730880744407151e-01,8.120010269750015386e-01,1.001154650085906761e+00,-2.989027159383305515e-02,-5.545163755132964667e-01,-2.196974397390449307e-01,-1.146706835560500348e+00,1.121756909784478617e+00
2.526900000000000257e-01,4.999399999999999955e-01,-1.024999999999999911e+00,3.329500000000000237e-01,-5.930499999999999661e-01,1.279200000000000059e-01,8.440600000000000325e-01,-1.999499999999999889e-01,7.408000000000000140e-01,-1.254699999999999926e+00,2.570200000000000262e-01,5.329000000000000403e-01,3.442900000000000127e-02,-6.847699999999999620e-02,9.887700000000000378e-01,-3.185299999999999937e-02,6.593700000000000117e-01,-6.691099999999999826e-01,2.152900000000000091e-01,4.284299999999999914e-02,5.986500000000000155e-01,3.276899999999999952e-02,-1.186600000000000099e+00,6.625600000000000378e-01,2.975300000000000167e-01,9.736000000000000210e-01,1.731499999999999984e-01,-7.809399999999999675e-01,4.854100000000000081e-01,8.955799999999999872e-02,-4.165499999999999758e-02,8.606300000000000061e-01,-2.630100000000000215e-01,4.122199999999999753e-01,5.146500000000000519e-01,2.439699999999999924e-01,-4.528900000000000287e-02,6.488399999999999723e-01,-8.833599999999999786e-02,1.870199999999999918e-01,6.630399999999999627e-01,5.075800000000000312e-01,-8.031399999999999650e-01,-2.332100000000000006e-01,4.894899999999999807e-01,4.437200000000000033e-01,4.730500000000000260e-01,-5.654099999999999682e-01,-8.900799999999999823e-01,8.503699999999999593e-01,-1.839300000000000102e-01,2.808399999999999785e-01,2.000699999999999978e-01,1.888000000000000095e-02,-3.619600000000000040e-01,5.303600000000000536e-01,1.287300000000000111e+00,-4.232000000000000206e-01,-4.428699999999999859e-01,1.063600000000000101e+00,3.943699999999999983e-01,7.717000000000000526e-01,2.115799999999999903e-01,2.797600000000000087e-01,-6.625399999999999345e-02,7.887600000000000167e-01,-5.853500000000000369e-01,1.528299999999999936e-01,7.126599999999999602e-01,1.106000000000000039e-01,-3.037000000000000255e-01,-2.983399999999999941e-01,-3.634499999999999953e-01,-5.838100000000000511e-01,5.116300000000000292e-01,-5.420300000000000118e-01,-1.008799999999999975e-01,1.487600000000000033e-01,-4.548400000000000221e-01,-5.564599999999999547e-01,1.421300000000000063e-01,1.400399999999999978e-01,-3.932700000000000085e-01,3.073699999999999766e-01,-1.060899999999999954e+00,1.766900000000000137e-01,-3.123500000000000165e-01,-4.231900000000000245e-02,-4.057100000000000151e-01,1.416000000000000036e-01,8.107600000000000362e-01,6.793100000000000527e-02,5.799999999999999600e-01,7.508399999999999519e-01,1.267300000000000093e+00,2.429600000000000093e-01,1.800200000000000133e-01,-1.343900000000000095e-01,8.074299999999999811e-01,-4.314100000000000157e-01
3.184000000000000163e-01,1.164800000000000002e-01,5.932199999999999973e-02,-8.191100000000000048e-01,-9.457100000000000506e-01,1.549299999999999899e+00,-7.085200000000000387e-01,-2.975099999999999967e-02,6.588399999999999812e-01,-3.985099999999999754e-01,-4.753600000000000048e-01,-1.790499999999999869e-01,8.955499999999999572e-02,-4.721600000000000241e-01,-1.964899999999999980e-01,1.160100000000000020e-01,-1.161200000000000010e+00,-4.035400000000000098e-01,-2.036999999999999922e-01,3.064100000000000157e-01,1.252099999999999991e+00,-7.105000000000000204e-02,1.808800000000000130e-01,-9.893699999999999717e-02,6.327199999999999491e-01,-2.071699999999999930e-01,-3.605599999999999916e-01,8.501900000000000013e-01,8.550999999999999712e-01,5.051200000000000134e-01,3.368700000000000028e-01,6.204800000000000315e-01,3.818900000000000072e-01,-7.241200000000000414e-02,-2.897799999999999820e-01,-4.221699999999999897e-01,1.428500000000000048e-01,-1.533200000000000118e-01,5.509100000000000108e-01,2.075599999999999945e-01,-9.169699999999999518e-01,-5.002199999999999980e-01,3.175799999999999734e-01,-4.030500000000000194e-01,3.326899999999999857e-01,-3.789199999999999791e-01,-1.158499999999999946e-01,8.931400000000000450e-01,4.927199999999999913e-01,-2.172900000000000109e-01,4.883299999999999863e-01,-5.519399999999999862e-01,4.192899999999999960e-01,5.124100000000000321e-01,-3.323400000000000243e-01,-1.220199999999999951e+00,3.069000000000000061e-01,1.565400000000000125e-01,7.262100000000000222e-01,-2.121999999999999997e-01,4.865200000000000080e-01,5.202900000000000302e-01,-2.685400000000000009e-01,-2.896900000000000031e-01,6.815200000000000147e-01,-3.573899999999999855e-01,8.635399999999999743e-01,3.542399999999999993e-01,1.918100000000000083e-01,-3.252999999999999781e-01,-3.831299999999999983e-02,-2.128700000000000037e-01,-6.202699999999999880e-01,-7.846699999999999786e-01,-2.577499999999999791e-01,1.111399999999999944e+00,7.395599999999999952e-01,1.087899999999999978e-01,-8.725000000000000533e-01,-8.431299999999999906e-02,1.127199999999999980e+00,-4.248299999999999854e-01,-5.644200000000000328e-01,-8.466799999999999327e-02,-1.341800000000000104e+00,-6.213999999999999524e-01,-4.918299999999999894e-01,2.339199999999999890e-01,-6.039400000000000324e-01,-6.937699999999999978e-01,5.811600000000000099e-01,-2.926699999999999857e-01,-5.632599999999999829e-01,1.718399999999999928e-01,-3.187699999999999978e-01,1.173600000000000060e-01,-7.173199999999999577e-01,9.681499999999999551e-01,-6.552700000000000191e-02,2.826400000000000023e-01
1.874399999999999955e-01,2.466299999999999881e-01,5.581599999999999895e-01,-6.108099999999999641e-01,-3.962999999999999856e-01,3.004000000000000004e-01,-2.259800000000000003e-02,1.377200000000000091e-01,6.715799999999999548e-01,-3.315400000000000014e-01,1.534300000000000108e-01,2.046499999999999986e-01,-6.700399999999999412e-02,-2.812399999999999900e-01,-1.528200000000000044e-02,-6.306300000000000239e-01,-6.346899999999999764e-01,6.993899999999999562e-01,-2.542599999999999860e-01,4.456300000000000261e-01,1.302999999999999992e-02,3.017299999999999982e-01,-2.497900000000000120e-01,-3.232499999999999818e-01,-4.226599999999999802e-02,1.912399999999999933e-01,-7.309499999999999886e-01,-5.868200000000000083e-01,3.097699999999999898e-01,-2.213900000000000035e-01,-6.355099999999999638e-02,2.227000000000000091e-01,3.482600000000000140e-01,-5.104800000000000448e-01,1.763599999999999890e-01,5.687699999999999978e-01,-3.174000000000000155e-01,-3.524399999999999755e-01,-7.552000000000000379e-02,-8.620400000000000285e-01,8.329000000000000292e-02,1.130300000000000055e-01,-2.217999999999999972e-01,-2.544799999999999840e-01,-6.902700000000000502e-01,-5.653500000000000192e-01,3.202599999999999891e-01,-8.383400000000000574e-02,-3.673000000000000154e-01,-9.670800000000000507e-01,3.454499999999999793e-01,-6.051999999999999741e-02,-1.775300000000000142e-02,9.100500000000000256e-01,-1.785099999999999881e-02,-1.204399999999999915e+00,-3.111999999999999836e-02,2.163799999999999890e-01,9.009800000000000031e-01,3.360899999999999999e-02,-5.561199999999999477e-01,7.927699999999999747e-01,-2.581100000000000061e-01,-3.121200000000000085e-01,4.431399999999999784e-01,-5.131600000000000050e-02,3.860199999999999743e-01,1.973900000000000099e-01,-2.064799999999999969e-01,-2.863800000000000026e-02,7.383299999999999585e-02,-2.074300000000000033e-01,2.480600000000000027e-01,-1.083400000000000057e-01,1.451699999999999935e-01,3.106099999999999972e-01,-1.672599999999999920e-01,-8.013099999999999390e-02,-2.088099999999999956e-01,-2.521699999999999983e-02,2.190900000000000070e-01,-3.379900000000000126e-01,-3.178699999999999859e-01,-2.629400000000000071e-01,-7.920599999999999863e-01,1.265999999999999938e-02,-6.518699999999999495e-02,3.212299999999999878e-02,-7.188299999999999690e-01,3.771399999999999753e-02,-5.601799999999999835e-02,-3.244299999999999962e-01,3.891000000000000014e-01,2.385599999999999943e-01,-3.943999999999999728e-01,2.315099999999999936e-01,3.125000000000000000e-01,5.655599999999999516e-01,3.127200000000000119e-02,2.288100000000000134e-01
-1.014199999999999963e-01,-4.035500000000000198e-01,3.156300000000000217e-01,3.431299999999999906e-01,9.276200000000000070e-03,-1.313999999999999890e-01,9.765800000000000036e-01,-5.610699999999999715e-02,-1.449900000000000078e-01,2.805799999999999961e-01,1.764699999999999880e-01,-6.309399999999999453e-01,-3.172300000000000120e-01,-3.115700000000000136e-01,-1.295699999999999907e-01,-2.027599999999999958e-01,9.101200000000000401e-01,-6.260999999999999899e-02,-5.559899999999999842e-01,9.712199999999999722e-01,-2.368399999999999950e-01,-5.245600000000000263e-01,9.679400000000000504e-02,1.201200000000000045e+00,3.947700000000000098e-01,5.903599999999999959e-01,-4.188299999999999801e-01,3.279000000000000248e-01,-3.277599999999999958e-01,-5.386499999999999622e-01,5.660899999999999821e-01,9.183099999999999596e-02,-4.315999999999999837e-01,4.021500000000000075e-01,1.293700000000000072e+00,8.903400000000000203e-02,-2.167999999999999927e-01,-8.768199999999999605e-02,1.919300000000000006e+00,5.994899999999999674e-01,-4.223299999999999832e-01,8.208400000000000141e-01,-2.304499999999999882e-01,4.615799999999999903e-01,5.797200000000000131e-01,-1.315500000000000003e-02,-1.466500000000000026e-01,2.935300000000000131e-01,-7.540600000000000080e-02,1.056900000000000062e-01,-1.142400000000000082e+00,9.399600000000000177e-01,7.352199999999999847e-01,1.087000000000000050e-01,-1.029199999999999976e-01,-1.782199999999999895e-01,1.516299999999999870e-01,-3.944300000000000028e-01,1.362999999999999989e+00,7.900899999999999590e-01,4.795099999999999918e-01,6.952300000000000146e-01,5.705000000000000071e-01,4.488300000000000067e-01,-4.788000000000000034e-01,4.179499999999999882e-01,5.205800000000000427e-01,-5.490800000000000125e-01,-2.852999999999999980e-01,7.093099999999999961e-01,-1.577000000000000068e-01,-6.729000000000000536e-01,-1.698800000000000032e-01,-4.933000000000000163e-01,-2.614099999999999757e-01,4.469500000000000139e-01,2.615799999999999792e-01,1.103099999999999969e+00,-8.853499999999999703e-01,1.263600000000000001e-01,-1.162900000000000045e-01,-2.091000000000000081e-01,-1.779999999999999916e-01,2.016600000000000059e-01,4.518699999999999939e-01,7.223800000000000221e-01,7.775999999999999579e-01,2.826799999999999868e-01,4.040500000000000203e-01,-8.621900000000000397e-02,6.237000000000000183e-02,-4.042600000000000082e-01,-1.118400000000000061e+00,1.197099999999999970e-01,-5.018899999999999473e-01,-2.530200000000000227e-01,-6.938600000000000323e-01,4.653100000000000014e-01,3.633399999999999963e-01,5.468499999999999472e-01
5.610600000000000032e-01,-2.371200000000000044e-02,9.607100000000000362e-02,5.412000000000000144e-01,3.399800000000000044e-01,-2.712399999999999811e-01,-2.382700000000000096e-01,9.712600000000000122e-01,-1.864099999999999924e-01,6.389800000000000167e-03,-2.418700000000000017e-01,-2.975300000000000167e-01,-7.821899999999999686e-02,-3.771800000000000153e-01,1.817400000000000126e-01,-2.384600000000000053e-01,4.158999999999999919e-01,1.619800000000000129e-01,-5.729699999999999793e-01,-2.713599999999999901e-01,-4.877500000000000169e-01,-4.497900000000000231e-01,-2.530999999999999917e-01,1.934599999999999931e-01,-8.919399999999999551e-01,-6.634900000000000242e-01,1.153200000000000058e-01,-5.318399999999999794e-01,-5.755599999999999605e-01,1.000400000000000039e-01,5.624099999999999655e-01,7.434300000000000352e-01,-6.944300000000000472e-02,-6.718899999999999872e-02,1.557000000000000051e-01,7.026999999999999913e-01,2.487099999999999866e-01,-5.347600000000000131e-01,-7.371799999999999464e-01,2.105799999999999894e-01,-2.330800000000000094e-01,-5.994099999999999984e-01,7.071800000000000308e-01,-1.409200000000000036e-02,1.999400000000000066e-01,-3.643199999999999772e-01,-2.447600000000000053e-01,-3.703899999999999970e-01,-4.183600000000000096e-01,-5.984300000000000175e-01,9.048200000000000687e-02,6.280600000000000072e-02,4.033900000000000263e-01,5.583099999999999730e-01,-9.200599999999999890e-01,-1.380200000000000093e+00,1.985300000000000120e-01,-2.590600000000000125e-01,1.858100000000000085e+00,2.689500000000000224e-01,1.347599999999999909e-01,-1.034899999999999987e-01,4.644300000000000095e-01,9.190500000000000058e-02,2.872399999999999953e-01,-2.529700000000000004e-02,-6.235199999999999632e-01,1.304599999999999982e+00,-2.082600000000000007e-01,-6.225899999999999768e-01,5.056800000000000184e-01,-3.464700000000000002e-01,-4.390700000000000158e-01,4.323400000000000021e-01,-5.429300000000000237e-01,-2.385299999999999920e-02,-8.987000000000000544e-01,6.074399999999999800e-01,-1.564799999999999969e+00,-4.263799999999999812e-01,3.749399999999999955e-01,-9.361800000000000122e-01,-1.519199999999999995e-01,-1.771000000000000074e-01,-1.306400000000000006e+00,2.038600000000000134e-01,1.376500000000000057e+00,-3.169399999999999995e-01,-8.161300000000000499e-02,-2.913999999999999924e-01,3.429599999999999871e-01,-5.170700000000000296e-01,-9.803600000000000092e-01,2.254700000000000037e-01,-4.076600000000000223e-01,8.577200000000000379e-01,1.021500000000000047e-01,7.377899999999999736e-02,6.686600000000000321e-01,-6.939699999999999758e-01
-1.891199999999999999e-03,-4.948999999999999927e-02,-1.427499999999999880e-01,-7.794100000000000472e-01,-1.546399999999999997e-01,-5.911299999999999888e-02,-4.767199999999999771e-01,1.794600000000000084e-01,-5.788600000000000412e-01,1.359499999999999875e-01,4.395100000000000118e-01,-1.117100000000000037e-02,1.150600000000000067e+00,3.446600000000000219e-01,6.651500000000000468e-02,1.319599999999999940e-01,-2.260800000000000032e-01,-9.553000000000000380e-02,4.148100000000000120e-01,-4.191599999999999770e-01,1.857499999999999984e-01,1.889000000000000123e-01,-4.024199999999999999e-01,-1.991799999999999959e-01,4.384700000000000264e-01,1.029900000000000038e+00,-8.689799999999999747e-01,3.404700000000000087e-02,2.631600000000000050e-01,2.940099999999999936e-01,4.060699999999999865e-01,6.248500000000000165e-01,-1.622599999999999876e-01,-2.307899999999999952e-01,-3.225999999999999701e-02,-6.991199999999999637e-01,-2.026499999999999968e-01,2.969600000000000017e-01,2.612700000000000022e-01,-6.690999999999999726e-02,-1.106799999999999971e-02,-1.327899999999999914e-01,4.159700000000000064e-01,-3.015700000000000047e-01,-9.050300000000000011e-01,-1.234600000000000003e-01,2.748800000000000132e-01,3.967499999999999916e-01,-3.028299999999999881e-01,1.548499999999999877e-01,-2.228900000000000048e-01,1.070200000000000040e+00,6.486200000000000299e-02,6.186199999999999477e-01,3.273800000000000043e-01,-2.108400000000000052e+00,-9.334000000000000075e-01,-2.113200000000000078e-01,1.797199999999999909e+00,1.082100000000000062e+00,1.158900000000000041e+00,1.324899999999999967e-01,1.367100000000000086e-02,1.072799999999999976e+00,-6.642299999999999871e-01,5.763000000000000067e-02,-6.449000000000000565e-02,3.679700000000000193e-01,2.536599999999999966e-01,4.978500000000000147e-01,1.532000000000000028e-01,1.191600000000000020e-01,-1.231000000000000011e-01,-5.036199999999999566e-01,6.307399999999999674e-01,-4.764499999999999846e-01,-8.622499999999999609e-01,7.102300000000000280e-01,-1.142800000000000066e-01,-1.347800000000000109e-01,3.054000000000000048e-01,4.082399999999999918e-01,-4.376499999999999835e-02,2.716299999999999826e-01,-1.216800000000000104e+00,-5.298899999999999721e-01,1.775500000000000134e-01,4.908199999999999785e-01,2.747299999999999742e-01,3.989100000000000285e-02,-2.089100000000000124e-01,-3.247200000000000086e-01,1.964400000000000035e-01,-1.421399999999999886e-01,4.020699999999999830e-01,4.593599999999999905e-01,4.481999999999999873e-01,-1.385500000000000065e-01,7.839199999999999502e-01,1.562099999999999947e-02
6.354899999999999993e-01,3.905100000000000238e-01,3.284900000000000042e-01,-2.119800000000000018e-01,3.849000000000000199e-01,-6.775299999999999379e-02,-3.578299999999999814e-01,3.687000000000000277e-01,-1.157099999999999934e-01,1.791399999999999937e-01,-1.856800000000000117e-01,1.865300000000000014e-01,9.874199999999999644e-01,1.211799999999999988e+00,-1.620300000000000074e-01,7.444199999999999706e-01,1.388600000000000112e-01,-2.281400000000000095e-01,-5.928400000000000336e-01,-1.010799999999999921e+00,1.062000000000000027e-01,-9.041399999999999437e-02,1.476099999999999912e-01,-5.001400000000000290e-01,4.994600000000000151e-01,8.836600000000000010e-01,-9.542899999999999716e-01,-2.908899999999999819e-01,6.160499999999999865e-01,9.414000000000000146e-02,6.526400000000000257e-02,-4.956900000000000195e-01,-9.384699999999999986e-02,-6.656300000000000550e-01,3.236399999999999832e-01,-3.477899999999999880e-01,7.920399999999999663e-01,-5.899799999999999489e-01,1.851500000000000090e-01,2.019400000000000084e-01,4.342499999999999832e-02,-1.847699999999999898e-01,4.342900000000000094e-01,-2.578500000000000236e-01,2.814099999999999935e-01,-7.407799999999999940e-01,-2.478700000000000070e-01,2.749800000000000022e-01,-6.157899999999999485e-01,-5.842300000000000271e-01,4.561399999999999899e-01,1.041900000000000048e+00,5.144900000000000168e-02,1.115499999999999936e+00,3.823599999999999777e-01,-1.453400000000000025e+00,-5.652199999999999447e-01,-7.101100000000000190e-01,1.524199999999999999e+00,-1.986600000000000033e-01,6.600000000000000311e-01,2.999600000000000044e-01,-2.266299999999999981e-01,4.579400000000000137e-01,-6.038500000000000117e-02,-1.401799999999999990e-01,3.569700000000000095e-01,4.287300000000000000e-01,-1.546200000000000074e-01,4.764200000000000101e-01,5.625900000000000345e-01,-7.003800000000000026e-01,1.101800000000000002e-01,-6.931199999999999584e-01,2.602800000000000114e-01,-4.685400000000000120e-01,-5.886400000000000521e-01,6.004599999999999937e-01,-1.382300000000000084e+00,1.937000000000000111e-01,1.351099999999999968e+00,3.345699999999999785e-01,3.209699999999999775e-01,1.128900000000000042e-01,-1.144900000000000029e+00,-1.458000000000000129e-01,2.497199999999999975e-01,-2.237599999999999867e-01,1.883999999999999911e-02,-1.473399999999999987e-01,-9.097199999999999731e-01,-1.401399999999999868e-01,9.643799999999999595e-02,2.264899999999999969e-01,-6.012699999999999712e-01,6.201600000000000168e-02,-2.685100000000000264e-01,2.321900000000000075e-01,1.169499999999999984e+00,-1.836899999999999922e-01
-5.566100000000000492e-01,-1.152299999999999991e-01,3.207200000000000051e-01,-1.762299999999999978e-01,5.580800000000000205e-01,9.406799999999999606e-01,-1.363499999999999990e-01,-1.962399999999999978e-01,9.564800000000000038e-03,-3.622899999999999732e-02,4.448400000000000132e-01,-4.971999999999999753e-01,1.529900000000000010e-02,-3.846600000000000019e-01,2.610600000000000143e-01,5.315400000000000125e-01,3.275399999999999978e-01,-4.004400000000000182e-01,-8.401100000000000234e-01,-3.100700000000000123e-01,1.202600000000000058e-01,-1.832100000000000117e-01,-5.126800000000000246e-01,7.068699999999999983e-01,5.385900000000000132e-01,-3.734399999999999942e-01,3.367100000000000093e-01,-4.262599999999999723e-01,-1.941599999999999923e-02,6.739100000000000090e-01,2.939399999999999791e-01,8.665000000000000480e-01,2.902800000000000172e-02,-4.913100000000000245e-01,-8.836699999999999555e-01,4.299600000000000088e-01,9.675400000000000666e-02,-1.535999999999999865e-01,-5.185300000000000464e-01,1.371199999999999919e-01,-8.040800000000000169e-01,2.473499999999999865e-01,8.350799999999999890e-02,1.843100000000000016e-01,-2.042299999999999949e-01,-3.927700000000000080e-01,3.398899999999999838e-02,-8.952499999999999902e-01,-4.224100000000000077e-01,-3.414200000000000013e-01,1.480199999999999960e+00,9.321899999999999631e-01,2.938299999999999801e-01,4.280399999999999761e-01,-8.726800000000000113e-01,-1.572100000000000053e+00,2.897299999999999875e-01,1.305699999999999916e-01,1.216900000000000093e+00,2.366999999999999937e-01,-6.466399999999999926e-01,3.280899999999999928e-01,-4.548099999999999921e-01,-8.223300000000000054e-01,1.394600000000000062e+00,-5.225300000000000500e-01,-3.530300000000000105e-03,4.642100000000000115e-01,-1.255699999999999872e-01,3.792800000000000060e-01,-8.527999999999999470e-02,7.706699999999999662e-01,3.939599999999999769e-01,7.460200000000000164e-01,-8.815199999999999425e-02,1.361900000000000055e-01,3.903699999999999948e-01,3.912200000000000122e-01,-1.989500000000000046e+00,-5.863300000000000178e-01,-2.283100000000000129e-01,-2.092700000000000116e-01,3.213300000000000045e-01,-7.068100000000000493e-01,-5.970100000000000406e-01,-4.575799999999999867e-01,2.861799999999999899e-01,-1.077399999999999913e+00,1.600100000000000133e-01,3.167499999999999760e-01,-6.651200000000000168e-02,-1.129499999999999948e-01,5.044699999999999740e-01,-1.745599999999999929e-01,4.460600000000000120e-01,5.581599999999999895e-01,-6.912400000000000488e-02,-1.157999999999999918e+00,5.829499999999999682e-01,3.483700000000000130e-01
1.459699999999999886e-01,1.459099999999999980e-02,5.403299999999999770e-01,-2.095400000000000040e-02,-6.795400000000000329e-01,6.018000000000000016e-01,-3.081499999999999795e-01,7.256799999999999917e-01,7.242600000000000149e-01,-8.986199999999999743e-01,8.300199999999999800e-01,9.064999999999999725e-01,8.046599999999999586e-02,2.913399999999999879e-01,6.268500000000000183e-01,-9.228699999999999681e-01,-8.460499999999999687e-01,3.506600000000000272e-01,-2.603400000000000158e-01,-2.103800000000000114e-01,3.512700000000000267e-01,1.777799999999999936e-01,5.225600000000000245e-01,-3.514700000000000046e-01,3.067599999999999771e-01,7.001899999999999791e-02,-6.676400000000000112e-01,-1.618199999999999916e-01,8.226100000000000079e-02,5.273999999999999799e-01,2.575200000000000267e-01,-2.380800000000000138e-01,1.068299999999999944e-01,1.481099999999999917e-01,-2.121099999999999930e-01,4.933000000000000163e-01,-4.709800000000000098e-01,-9.127399999999999403e-02,1.527700000000000058e+00,-3.550699999999999967e-01,-4.919700000000000184e-01,7.753900000000000237e-01,3.334900000000000087e-01,2.199600000000000166e-02,-3.262800000000000145e-01,3.029700000000000171e-01,-5.904899999999999594e-01,5.594299999999999828e-01,2.870099999999999874e-01,-1.233000000000000096e+00,-2.640899999999999914e-01,-6.222600000000000353e-01,6.806199999999999750e-02,7.759300000000000086e-01,1.954400000000000026e-01,-9.215600000000000458e-01,-1.116700000000000054e-01,3.379099999999999882e-01,2.821600000000000219e-01,3.690800000000000192e-01,5.806400000000000450e-01,6.970899999999999874e-01,-1.297800000000000065e-01,-2.043000000000000094e-01,-5.258599999999999941e-01,2.278000000000000025e-01,5.334100000000000508e-01,-6.498899999999999677e-01,-1.262699999999999934e-01,3.176800000000000179e-01,-5.337399999999999922e-01,-4.914200000000000235e-01,1.022999999999999909e+00,-1.019300000000000067e-01,-4.554500000000000215e-01,3.400400000000000089e-01,-2.755400000000000071e-01,-3.299400000000000110e-01,5.853800000000000114e-01,-7.048699999999999966e-01,-6.414199999999999902e-01,3.920000000000000151e-01,-6.300099999999999589e-01,2.269899999999999973e-01,-4.346599999999999908e-01,-8.159899999999999931e-01,-3.747299999999999937e-02,4.545799999999999841e-02,-1.021099999999999897e+00,1.630800000000000027e-01,2.733099999999999974e-01,-2.060200000000000087e-01,4.934700000000000197e-01,4.779700000000000060e-01,-2.977299999999999947e-01,1.113299999999999984e-01,2.901000000000000245e-01,-4.466599999999999737e-02,3.316299999999999804e-01,-8.981099999999999639e-01
5.250099999999999906e-02,-6.327199999999999491e-01,6.800100000000000033e-01,-9.707000000000000073e-01,-9.073200000000000154e-01,1.561500000000000110e-01,-1.783600000000000116e-02,1.318799999999999972e-01,7.781399999999999428e-02,-7.627600000000000222e-04,1.941100000000000048e-01,1.042399999999999993e-01,1.366900000000000059e-01,3.271700000000000164e-01,1.048899999999999971e-01,9.845300000000000162e-01,-3.512299999999999867e-01,5.297300000000000342e-01,-2.593099999999999850e-01,4.281900000000000289e-02,4.049400000000000222e-01,4.484000000000000208e-01,-3.857900000000000218e-01,2.683999999999999928e-02,3.647299999999999986e-01,1.205100000000000060e+00,-5.863699999999999468e-01,3.573799999999999755e-01,1.786099999999999910e-01,-1.066600000000000048e-01,-1.243400000000000061e-01,6.721700000000000452e-01,7.583100000000000396e-01,6.043199999999999683e-01,-7.123699999999999477e-01,-4.610199999999999854e-01,-1.122100000000000097e+00,9.755800000000000027e-01,1.992099999999999982e-01,-4.893000000000000127e-01,5.228599999999999914e-01,3.446500000000000119e-01,-4.064300000000000135e-01,-2.751100000000000212e-01,-1.110000000000000098e+00,-4.845099999999999962e-01,-3.976700000000000235e-01,1.273700000000000110e-01,-4.686600000000000210e-01,6.147899999999999893e-02,-1.022199999999999998e+00,-3.860000000000000236e-02,-9.404500000000000359e-02,3.244799999999999907e-01,-1.318400000000000016e+00,-9.404500000000000359e-02,-3.665200000000000125e-01,9.760299999999999532e-01,2.037899999999999989e-01,-6.366100000000000092e-01,1.138300000000000090e+00,2.707899999999999752e-01,-3.707699999999999885e-01,2.377199999999999869e-01,6.747499999999999609e-01,3.628800000000000081e-02,8.008500000000000341e-02,-4.485899999999999888e-01,8.660900000000000543e-02,-7.608200000000000518e-01,-4.728899999999999770e-02,-2.249700000000000033e-01,7.617399999999999727e-01,-4.228799999999999781e-01,-1.519099999999999895e-01,-2.225999999999999923e-01,-1.072400000000000020e+00,4.889299999999999757e-01,1.115600000000000064e-01,-1.813800000000000134e-02,1.143300000000000045e-02,-8.344300000000000328e-02,4.352500000000000258e-01,-2.360700000000000021e-01,-1.493000000000000056e-02,-2.643199999999999994e-01,-3.093000000000000194e-01,-5.517699999999999827e-01,-3.786200000000000121e-01,-3.608700000000000241e-01,-4.729200000000000070e-01,3.121200000000000016e-02,2.028399999999999925e-01,-4.632800000000000251e-01,1.446399999999999908e-01,-6.274399999999999977e-01,-4.261599999999999833e-01,3.871299999999999741e-01,1.943300000000000027e-01,-1.694100000000000050e-01
-7.048900000000000166e-01,-4.836900000000000088e-01,1.048000000000000043e+00,-2.693500000000000148e-03,-1.002200000000000035e-01,-1.066100000000000048e+00,6.555400000000000116e-01,4.537200000000000122e-01,-4.325899999999999745e-01,5.113399999999999890e-02,4.423000000000000265e-01,3.195799999999999752e-01,3.065200000000000147e-01,2.234800000000000120e-01,-3.987600000000000033e-01,-1.444900000000000073e+00,2.238499999999999934e-01,1.203100000000000058e+00,4.557800000000000185e-01,3.214600000000000235e-01,3.707300000000000179e-02,-6.978100000000000414e-01,-5.721500000000000474e-01,-1.434100000000000097e-01,7.176799999999999846e-01,6.514299999999999535e-01,-5.648100000000000342e-01,1.061500000000000110e+00,4.020799999999999930e-01,-2.414200000000000026e-02,-5.046000000000000485e-01,-3.175799999999999734e-01,-9.219500000000000473e-01,9.812100000000000266e-01,-6.368400000000000449e-02,3.318400000000000238e-01,2.197900000000000131e-01,4.499699999999999811e-01,2.741899999999999893e-01,-2.647800000000000153e-01,-9.927799999999999958e-01,-4.848299999999999832e-01,4.103399999999999825e-01,4.920499999999999874e-01,3.368399999999999728e-01,-4.278799999999999965e-02,-7.231499999999999595e-01,2.328900000000000137e-01,5.977099999999999635e-01,1.283700000000000063e+00,-3.773400000000000087e-01,3.938900000000000179e-01,3.893300000000000094e-01,5.565900000000000292e-01,-7.381799999999999473e-02,-1.130200000000000093e+00,2.508600000000000274e-01,3.982299999999999729e-01,6.659199999999999564e-01,5.085899999999999865e-01,-4.384899999999999909e-01,1.299600000000000088e+00,6.327399999999999691e-01,3.926399999999999890e-01,-5.871599999999999736e-02,2.606399999999999828e-01,-4.401599999999999957e-01,4.241900000000000115e-01,-8.200499999999999456e-01,-4.366700000000000026e-01,4.684999999999999928e-03,1.434199999999999919e-01,3.071499999999999925e-02,1.819000000000000061e-01,-3.421000000000000152e-01,-4.569900000000000073e-01,4.271800000000000042e-01,6.368899999999999562e-01,-7.191800000000000415e-01,2.633300000000000085e-01,-2.334900000000000031e-01,1.240300000000000014e-01,-4.753499999999999948e-01,8.824699999999999767e-01,1.165000000000000063e-01,4.413899999999999768e-02,5.118599999999999817e-01,7.192100000000000160e-01,-1.282099999999999906e-01,-2.010200000000000042e-01,1.745099999999999985e-01,5.717400000000000260e-01,6.005399999999999627e-01,-2.185699999999999865e-01,1.540300000000000002e-01,-1.788599999999999912e-01,9.100300000000000056e-01,3.620700000000000029e-01,-3.051200000000000023e-01,-6.728699999999999959e-02
-9.452599999999999891e-02,2.821899999999999964e-01,-1.195399999999999935e-01,-5.768100000000000449e-01,-4.528499999999999748e-01,3.478899999999999770e-01,3.823599999999999915e-02,8.910099999999999965e-02,3.553200000000000247e-01,-1.016199999999999992e+00,1.476699999999999957e-01,1.197599999999999998e+00,2.913600000000000079e-01,1.078200000000000047e+00,-2.285399999999999932e-01,-5.836700000000000221e-01,5.719600000000000239e-01,-2.531499999999999861e-01,2.975999999999999757e-01,-8.295700000000000296e-01,8.746099999999999985e-01,-2.082199999999999884e-01,-5.514799999999999702e-01,7.386500000000000288e-01,1.070999999999999952e+00,5.007099999999999884e-01,5.330000000000000293e-01,-7.341999999999999638e-01,9.424200000000000355e-01,-2.650500000000000078e-01,-7.737199999999999633e-01,-1.372700000000000031e-01,2.386199999999999988e-01,-1.293199999999999905e-01,4.642299999999999760e-01,-2.634299999999999975e-01,-2.718099999999999961e-01,3.393999999999999795e-01,-2.317200000000000093e-01,4.958299999999999930e-01,4.424199999999999799e-01,-3.357799999999999674e-02,-6.425699999999999745e-01,1.183300000000000046e-01,1.420299999999999896e-01,3.077600000000000127e-02,7.710599999999999399e-02,-1.200100000000000056e-01,-3.992100000000000093e-01,2.439399999999999902e-01,-2.251499999999999890e-01,-2.125100000000000044e-01,-1.718300000000000105e-01,-3.089700000000000224e-01,-1.000899999999999901e+00,5.643000000000000238e-01,7.283699999999999619e-01,-3.659399999999999875e-01,-1.034499999999999975e+00,-4.641500000000000070e-01,2.934700000000000086e-01,-6.625199999999999978e-01,7.129699999999999926e-02,-1.127800000000000052e-01,3.875899999999999901e-01,5.850499999999999590e-01,4.876099999999999879e-01,8.070500000000000451e-01,2.044499999999999929e-01,-9.766800000000000481e-02,-1.462299999999999989e-01,-1.555199999999999916e-01,-2.461299999999999877e-01,7.969099999999999795e-02,3.255600000000000160e-01,4.487000000000000016e-02,4.544699999999999851e-01,-1.541500000000000092e-01,2.020399999999999974e-01,-5.530199999999999699e-02,6.926899999999999724e-02,1.754199999999999926e-01,-5.806099999999999595e-01,-1.583700000000000108e-01,2.306199999999999917e-01,-3.736599999999999921e-01,-1.663300000000000056e-01,1.681499999999999939e-01,-3.285299999999999887e-01,4.101099999999999746e-01,5.575499999999999901e-01,3.346899999999999875e-02,1.183499999999999996e+00,1.037099999999999911e+00,7.797199999999999687e-01,7.703000000000000125e-02,2.851299999999999946e-01,5.797299999999999676e-01,2.011999999999999900e-01,-6.556600000000000206e-01
-2.543300000000000005e-01,-2.025000000000000133e-01,-4.800300000000000400e-03,-1.069900000000000073e+00,-7.117299999999999738e-01,2.051800000000000013e-01,3.021099999999999897e-01,-1.391999999999999904e-01,-4.564900000000000069e-01,1.538100000000000023e-01,5.888200000000000101e-01,4.064599999999999880e-01,-2.995399999999999729e-01,-4.604599999999999804e-01,7.556399999999999784e-01,1.713099999999999901e-01,8.508999999999999897e-01,2.148799999999999877e-01,-6.425300000000000455e-02,-1.134800000000000045e-02,-3.033899999999999930e-01,1.736600000000000088e-01,-6.785499999999999865e-01,3.330299999999999927e-01,-2.283100000000000129e-01,2.813499999999999890e-01,-2.448899999999999966e-01,-2.076000000000000068e-01,4.857600000000000251e-01,8.415099999999999802e-01,-6.667600000000000193e-01,1.890100000000000113e-01,-3.658299999999999746e-02,6.319399999999999462e-01,7.012800000000000145e-01,4.854899999999999771e-01,6.358700000000000463e-01,4.009699999999999931e-01,1.067899999999999960e-01,-9.534099999999999797e-01,5.010900000000000354e-01,4.153299999999999770e-01,-8.905899999999999928e-01,4.322199999999999931e-01,4.861900000000000110e-01,-6.445199999999999818e-01,-2.420799999999999896e-01,-1.735099999999999976e-01,-1.635099999999999998e+00,1.297199999999999909e+00,-6.398800000000000043e-01,-2.544799999999999840e-01,5.890100000000000335e-01,-2.117499999999999938e-01,-1.335599999999999898e+00,-4.012800000000000256e-01,1.653699999999999948e+00,-5.075800000000000312e-01,-1.182900000000000063e+00,7.665199999999999791e-02,6.404499999999999638e-01,1.282100000000000080e-02,-2.874399999999999733e-01,-5.067300000000000137e-01,2.080599999999999949e-01,5.955599999999999783e-01,7.587199999999999500e-01,-1.650300000000000031e-02,7.879099999999999993e-02,-4.850700000000000012e-01,5.353900000000000325e-01,-7.929300000000000237e-02,3.706800000000000095e-01,-3.344199999999999950e-01,-5.243400000000000283e-01,-5.721699999999999564e-01,-7.163200000000000123e-02,3.375500000000000167e-01,1.676900000000000057e-01,7.403600000000000181e-01,7.600500000000000311e-02,-2.019700000000000106e-01,-2.567900000000000182e-01,-5.511699999999999933e-02,-7.776300000000000434e-01,-9.689400000000000235e-01,-8.409300000000000108e-02,2.250900000000000123e-02,1.891200000000000103e-01,1.159399999999999986e+00,6.141699999999999937e-01,2.434600000000000097e-01,1.001500000000000057e+00,1.162600000000000078e+00,7.947400000000000020e-01,3.472799999999999776e-01,4.689300000000000135e-01,1.074000000000000066e+00,3.124799999999999800e-01,-1.117299999999999960e+00
-5.601199999999999513e-01,-4.760900000000000132e-01,6.612999999999999989e-01,-1.608500000000000041e+00,-8.609200000000000186e-01,-1.387700000000000045e-01,-1.171800000000000064e-01,8.545899999999999608e-01,-1.470399999999999929e+00,-3.114999999999999991e-01,9.375000000000000000e-02,-4.521700000000000025e-02,-8.507099999999999662e-01,1.187899999999999956e+00,5.240899999999999448e-01,1.044200000000000017e+00,7.582499999999999796e-01,-5.537099999999999661e-02,-6.476600000000000135e-01,6.989100000000000312e-01,1.437500000000000000e+00,-2.657500000000000140e-02,-1.618300000000000016e-01,1.267200000000000104e+00,1.210299999999999931e+00,9.093700000000000117e-01,1.437699999999999978e+00,1.231099999999999972e-01,5.219399999999999595e-01,-1.024199999999999937e-02,-1.021900000000000031e+00,2.798599999999999977e-01,-3.451699999999999768e-01,-1.459799999999999986e-01,3.986600000000000144e-01,-4.314600000000000102e-01,4.031300000000000161e-02,7.140699999999999825e-01,4.661000000000000143e-01,4.105099999999999860e-01,-2.233799999999999952e-01,-5.544900000000000384e-01,-6.034500000000000419e-01,2.879700000000000037e-01,-7.705700000000000049e-02,-1.185699999999999976e+00,-5.248099999999999987e-02,4.131199999999999872e-01,-4.310800000000000187e-01,-4.200499999999999790e-01,1.296499999999999909e-03,2.044300000000000006e-01,-2.111599999999999866e-01,-6.445300000000000473e-01,-7.364100000000000090e-01,-4.358299999999999952e-01,2.565100000000000158e-01,2.687800000000000189e-01,-1.858700000000000074e-01,-1.477700000000000125e-01,1.051600000000000090e+00,-6.443900000000000183e-01,-6.108299999999999841e-01,3.993300000000000183e-01,3.618700000000000250e-01,4.849700000000000122e-01,-1.395799999999999992e-02,-2.482999999999999929e-01,-1.074199999999999981e-02,6.317700000000000538e-01,6.592800000000000049e-02,9.569400000000000128e-01,-7.246299999999999963e-01,-4.584699999999999886e-01,-3.164199999999999791e-01,-1.222399999999999931e+00,1.115699999999999914e+00,4.548400000000000221e-01,4.989100000000000201e-01,-3.260199999999999765e-01,5.266399999999999970e-01,-7.475699999999999568e-01,5.556200000000000028e-01,3.075700000000000101e-01,5.987599999999999589e-01,1.255000000000000004e-01,1.315300000000000080e-01,-4.072599999999999831e-02,7.183499999999999608e-02,1.111099999999999977e+00,-9.163699999999999624e-02,-7.712700000000000111e-01,1.448700000000000099e+00,1.304700000000000026e-01,3.650499999999999856e-01,2.571700000000000097e-01,8.513600000000000334e-02,1.552699999999999914e-01,-2.373399999999999954e-01,-8.547000000000000153e-01
-5.807200000000000140e-01,-1.092800000000000021e-01,3.204899999999999971e-01,4.437300000000000272e-02,-8.074700000000000211e-01,1.421699999999999964e+00,-3.307999999999999829e-01,5.278399999999999759e-01,1.689599999999999991e-01,-8.296400000000000441e-01,1.038899999999999935e+00,6.945599999999999552e-01,6.572400000000000464e-02,-1.092899999999999983e-01,4.117399999999999949e-01,-7.765300000000000535e-01,-4.854899999999999771e-01,5.832199999999999607e-01,1.550300000000000011e-01,-4.355100000000000082e-01,1.592300000000000104e-01,5.564000000000000057e-01,-1.359100000000000030e-01,-4.038599999999999968e-01,3.142500000000000154e-02,4.919000000000000039e-01,1.088400000000000062e-01,1.492799999999999960e-01,2.202800000000000036e-01,6.992300000000000182e-01,3.149799999999999822e-02,-5.562200000000000477e-01,4.800300000000000122e-01,9.891400000000000192e-01,-3.352800000000000225e-01,2.478299999999999947e-01,-1.828400000000000025e-01,9.554700000000000693e-02,8.317999999999999838e-01,-7.146099999999999675e-01,-2.640000000000000124e-01,6.320000000000000062e-01,2.324100000000000055e-01,3.001300000000000079e-01,-1.115199999999999941e-01,-2.894599999999999951e-01,-6.513800000000000145e-02,3.569499999999999895e-01,4.686299999999999910e-01,-8.207100000000000506e-01,-6.135399999999999743e-01,-5.248500000000000387e-01,-5.612500000000000128e-02,5.040599999999999525e-01,1.789000000000000035e-01,-8.813100000000000378e-01,5.818200000000000038e-01,-1.184400000000000036e-01,1.979899999999999993e-01,2.859200000000000075e-01,8.408600000000000518e-01,1.218299999999999939e+00,-2.818599999999999994e-01,-8.931200000000000250e-01,-1.174100000000000005e-01,4.265900000000000247e-01,2.458400000000000030e-01,-2.224700000000000011e-01,1.311299999999999966e-01,2.440299999999999969e-01,-2.123800000000000132e-01,-6.445599999999999941e-02,5.678999999999999604e-01,-2.259799999999999864e-01,-6.553099999999999481e-01,3.427100000000000146e-01,-4.631500000000000061e-01,-5.494200000000000195e-01,6.365499999999999492e-01,-8.959200000000000497e-01,-2.879499999999999837e-01,1.756300000000000083e-01,-1.264699999999999935e+00,9.623800000000000132e-01,-2.602800000000000114e-01,1.044599999999999973e-01,-7.112400000000000666e-02,8.900599999999999623e-01,-1.006199999999999983e+00,2.722300000000000275e-01,2.598599999999999799e-01,3.168099999999999805e-01,4.327900000000000080e-01,-2.782100000000000128e-01,8.245099999999999651e-02,5.231700000000000239e-01,2.360099999999999976e-01,-3.037099999999999800e-01,-3.050899999999999723e-01,-2.139900000000000135e-01
-1.634400000000000089e-02,-1.238900000000000001e-01,7.097799999999999665e-01,2.122100000000000097e-01,-7.139299999999999535e-01,5.302099999999999591e-01,-3.711400000000000254e-01,1.683900000000000119e-01,3.347499999999999920e-01,-1.024800000000000016e-01,-1.353199999999999958e-01,-1.018499999999999961e-01,-3.653200000000000197e-02,-2.736700000000000244e-01,6.279900000000000482e-01,4.146299999999999986e-01,-7.469000000000000083e-01,-4.058100000000000041e-01,6.429500000000000215e-01,-2.993100000000000205e-01,3.557000000000000162e-01,2.064900000000000069e-01,2.714799999999999991e-01,-2.584400000000000031e-01,3.201999999999999846e-01,-6.497500000000000497e-02,-6.075099999999999945e-01,3.832200000000000051e-01,3.392200000000000215e-01,2.021300000000000041e-01,-1.951600000000000001e-01,3.528399999999999870e-01,2.691999999999999948e-01,-7.346099999999999852e-01,1.137100000000000055e-01,1.333100000000000118e-01,-4.344799999999999773e-01,-1.626799999999999913e-01,2.619099999999999762e-01,-2.318099999999999883e-01,-1.617800000000000071e-01,2.260900000000000132e-01,1.575499999999999956e-01,-8.352400000000000102e-02,-1.032399999999999984e+00,-2.416099999999999845e-02,5.863000000000000433e-01,7.691200000000000259e-01,-1.522099999999999972e-03,-1.183499999999999969e-01,1.368800000000000017e-01,-5.812300000000000244e-01,2.646100000000000119e-01,5.915099999999999802e-01,1.579299999999999871e-01,-1.756999999999999895e+00,7.081800000000000317e-01,-1.245900000000000063e-01,1.823400000000000021e-01,1.673099999999999865e-01,-2.396899999999999864e-01,4.868500000000000050e-01,-2.602300000000000099e-02,1.247499999999999998e-01,3.503200000000000203e-01,-9.084400000000000253e-01,7.880899999999999572e-01,-3.590999999999999748e-02,-3.540300000000000114e-01,-5.326400000000000023e-01,-1.234299999999999981e-01,-3.295799999999999841e-01,-1.577999999999999958e-01,-1.562699999999999922e-01,1.252999999999999947e-01,2.978100000000000191e-01,-6.590000000000000302e-01,-1.964799999999999880e-01,3.621300000000000074e-01,-2.340399999999999980e-01,-1.903400000000000092e-01,1.513199999999999962e-02,4.793899999999999828e-01,-4.918200000000000176e-03,-1.299099999999999921e+00,-1.640699999999999936e-01,1.531299999999999883e-01,5.836099999999999621e-01,-4.750300000000000078e-01,-1.181599999999999984e+00,-1.406799999999999995e-01,7.985299999999999621e-01,-1.983699999999999908e-01,-2.536499999999999866e-01,1.350200000000000011e-01,3.066999999999999726e-01,-6.018799999999999706e-01,-1.901200000000000112e-01,-3.357600000000000029e-01,1.864399999999999946e-01
-1.227300000000000058e+00,6.573900000000000299e-01,-1.344200000000000061e+00,4.724599999999999911e-01,-6.623900000000000343e-01,6.770399999999999752e-01,4.843399999999999928e-01,1.041699999999999987e-01,-1.562600000000000100e-01,9.530399999999999983e-01,1.138800000000000034e+00,-6.087200000000000388e-01,6.046200000000000185e-02,9.452599999999999891e-02,-5.598199999999999843e-01,-4.339899999999999869e-01,2.085700000000000054e-01,-2.130599999999999994e-01,-2.517499999999999738e-01,-1.010999999999999899e+00,-1.316200000000000037e+00,1.191999999999999948e+00,2.380299999999999916e-01,-5.066899999999999876e-02,-2.026399999999999868e-01,9.879499999999999948e-01,1.084200000000000025e-01,4.786800000000000083e-02,-1.321700000000000097e+00,-3.933400000000000230e-01,-3.950899999999999967e-01,6.162300000000000555e-01,-1.219399999999999998e-02,-8.064400000000000457e-01,-5.197899999999999743e-01,1.119499999999999940e-01,7.413699999999999735e-01,2.079600000000000060e-01,4.155800000000000050e-01,-8.866500000000000492e-01,-2.582599999999999896e-01,-1.079700000000000104e+00,-5.806799999999999740e-01,-7.427700000000000413e-01,-2.474099999999999910e-02,-8.698100000000000276e-02,-9.891900000000000137e-01,-4.662399999999999878e-01,-1.058999999999999941e-01,-1.878299999999999970e-01,-5.056300000000000239e-01,4.515799999999999814e-01,-2.570999999999999952e-01,1.385999999999999899e+00,-6.597100000000000186e-01,-8.366799999999999793e-01,-2.363099999999999923e-01,1.326299999999999979e-01,3.908599999999999852e-01,-2.801500000000000171e-02,5.226200000000000290e-03,9.401899999999999702e-01,-4.677100000000000007e-02,-2.950799999999999951e-02,2.832600000000000118e-01,-9.234900000000000331e-01,7.942299999999999915e-01,-1.847900000000000098e-01,-5.283299999999999663e-01,-1.043600000000000083e+00,-9.407200000000000006e-01,2.659000000000000252e-01,4.791500000000000203e-01,1.085599999999999898e+00,-2.024900000000000033e-01,5.709300000000000486e-01,-6.412199999999999844e-02,-5.238199999999999523e-01,6.120900000000000230e-01,-1.199100000000000027e-01,2.195100000000000176e-03,5.051600000000000534e-01,-9.499699999999999811e-01,1.016499999999999959e+00,6.695500000000000063e-02,-6.324400000000000022e-01,4.170599999999999863e-01,1.643900000000000083e-01,1.125299999999999967e+00,-1.244100000000000067e-01,8.920899999999999663e-02,9.855000000000000426e-01,-3.441500000000000115e-01,-4.030599999999999739e-01,-4.339100000000000179e-01,-1.147000000000000020e+00,7.951099999999999834e-01,8.758799999999999919e-02,2.903600000000000070e-01,8.051399999999999668e-01
-1.120600000000000068e-01,7.171899999999999942e-01,2.632499999999999840e-01,4.297900000000000054e-01,2.698999999999999733e-01,8.513699999999999601e-01,3.948699999999999988e-01,9.356899999999999940e-02,6.680800000000000072e-01,-3.592000000000000193e-01,8.274299999999999988e-01,2.350800000000000112e-01,1.546599999999999919e-01,-8.648599999999999344e-02,6.231100000000000527e-01,-2.960999999999999743e-01,-3.028299999999999881e-01,5.174400000000000110e-01,3.041900000000000159e-01,-4.668900000000000272e-01,2.054900000000000060e-01,4.899399999999999866e-01,1.089500000000000052e-01,-4.054300000000000126e-01,1.213700000000000057e-01,-5.001700000000000035e-01,-8.599599999999999467e-01,-7.398200000000000331e-01,1.848400000000000043e-01,-3.857400000000000273e-01,2.039499999999999924e-01,1.140400000000000025e-01,3.214299999999999935e-01,2.448299999999999921e-01,2.235000000000000042e-01,6.274399999999999422e-02,-3.370299999999999963e-01,1.162099999999999939e-01,-4.633700000000000319e-02,8.757300000000000084e-01,-3.455199999999999938e-02,-7.647199999999999553e-01,2.012100000000000000e-01,1.544599999999999862e-01,2.305300000000000127e-01,-1.524800000000000044e-01,6.104899999999999771e-01,5.571799999999999670e-02,6.163199999999999790e-01,-1.405000000000000027e+00,-1.033099999999999991e-01,-4.754900000000000237e-01,1.158000000000000002e-01,1.086300000000000043e+00,4.518699999999999939e-01,-1.611099999999999977e+00,-4.802100000000000257e-01,-1.811899999999999900e-01,5.498100000000000209e-01,5.180700000000000305e-01,5.982800000000000340e-01,6.181100000000000483e-01,-5.973199999999999621e-01,-2.743200000000000083e-01,2.518799999999999858e-02,1.689100000000000046e-01,6.034399999999999764e-01,9.854000000000000259e-02,-7.811999999999999500e-02,-1.889399999999999968e-01,-2.141899999999999967e-03,-6.144000000000000156e-02,1.026900000000000078e-03,5.052799999999999514e-01,2.969300000000000272e-01,5.329700000000000548e-01,-5.392299999999999871e-01,-3.332600000000000007e-01,-4.298199999999999799e-01,1.184899999999999981e-01,-2.301100000000000090e-01,1.273100000000000065e-01,-9.589800000000000546e-01,-3.137300000000000089e-01,-1.189799999999999969e+00,-9.055999999999999606e-01,2.917399999999999993e-01,2.247999999999999998e-01,3.236800000000000233e-01,3.306000000000000050e-01,8.000099999999999989e-01,4.707600000000000118e-01,-3.437000000000000055e-01,-3.140200000000000213e-01,-7.027299999999999658e-01,6.032899999999999929e-01,9.444700000000000317e-02,-1.382200000000000095e-01,-1.633300000000000030e-01,2.708899999999999850e-02
4.225300000000000167e-01,6.662400000000000544e-01,2.995200000000000085e-01,2.989299999999999943e-02,-6.287199999999999456e-01,8.034499999999999975e-01,7.095200000000000118e-02,1.076899999999999968e+00,9.749700000000000033e-01,8.421999999999999487e-01,3.917100000000000026e-01,-7.918200000000000238e-02,-2.733599999999999919e-01,1.306300000000000017e+00,9.194599999999999995e-02,6.151700000000000224e-02,-9.743399999999999839e-01,5.780300000000000438e-01,-3.271100000000000119e-01,-7.970500000000000362e-01,-3.852400000000000269e-01,-3.965699999999999954e-03,-1.922599999999999865e-01,-3.775600000000000067e-01,4.599699999999999900e-01,-6.749500000000000499e-01,-6.800800000000000178e-01,-4.753200000000000203e-01,-2.576700000000000101e-01,-1.700200000000000045e-01,3.646800000000000042e-01,-3.757300000000000084e-01,4.146799999999999792e-02,5.759300000000000530e-01,3.397200000000000220e-01,9.846399999999999597e-01,-5.396699999999999831e-01,-4.028800000000000159e-01,9.443700000000000427e-01,-3.195899999999999852e-01,4.779700000000000060e-01,-4.958000000000000185e-01,-2.529399999999999982e-01,-5.969600000000000461e-01,-1.349799999999999889e-01,1.109699999999999909e+00,-9.109500000000000375e-01,2.078599999999999892e-01,5.146699999999999608e-01,-4.743800000000000239e-01,3.304200000000000192e-02,-1.456800000000000039e-01,-3.291000000000000036e-01,6.939400000000000013e-01,-3.713400000000000034e-01,-1.605900000000000105e+00,-4.211100000000000260e-02,-1.932899999999999896e-01,6.687699999999999756e-01,3.854699999999999793e-01,-1.388900000000000134e-01,4.350399999999999823e-01,1.589899999999999924e-01,4.243999999999999995e-01,1.641400000000000081e-01,3.957399999999999807e-01,1.560100000000000042e+00,-7.255200000000000538e-01,-3.972300000000000275e-01,-3.342899999999999761e-01,-7.047900000000000276e-01,4.381499999999999839e-01,7.616000000000000547e-01,-6.536300000000000443e-02,-2.474499999999999963e-02,4.061600000000000210e-01,-3.033500000000000085e-02,4.337799999999999989e-02,2.763399999999999745e-01,2.651299999999999768e-01,-3.733400000000000052e-01,6.931600000000000261e-02,4.873600000000000154e-01,6.509200000000000541e-01,-6.205199999999999605e-01,-4.309100000000000152e-01,7.463300000000000489e-02,4.034499999999999753e-01,-1.574599999999999889e-01,-2.278900000000000092e-01,9.234700000000000131e-01,-1.676799999999999957e-01,1.026200000000000001e+00,-1.221300000000000024e-01,4.852500000000000147e-01,-1.739900000000000058e-01,4.016200000000000325e-02,1.466300000000000103e-01,3.156100000000000017e-01,6.221499999999999947e-02
1.160100000000000020e-01,1.665000000000000091e-01,5.137199999999999545e-01,-2.737499999999999933e-01,-5.372999999999999998e-01,-2.536200000000000121e-01,2.178499999999999881e-02,-4.336400000000000254e-01,-7.118999999999999773e-01,-6.385600000000000165e-01,-2.253400000000000125e-01,-2.562899999999999900e-02,-3.654700000000000171e-01,9.728799999999999670e-01,-9.778199999999999392e-02,9.413299999999999446e-03,-5.135600000000000165e-01,1.834099999999999897e-01,1.491699999999999970e-01,3.319699999999999873e-01,-5.579400000000000418e-04,-4.434799999999999853e-01,8.532199999999999507e-02,-4.190300000000000136e-01,1.069499999999999895e+00,-1.885799999999999976e-01,-1.585699999999999957e-02,-1.049299999999999955e-01,5.466200000000000225e-02,6.301499999999999879e-01,-8.517299999999999871e-01,5.150099999999999678e-01,-3.255600000000000160e-02,1.974700000000000066e-01,-2.279899999999999982e-01,6.969999999999999529e-01,-7.539299999999999891e-01,2.332200000000000106e-01,-4.314299999999999802e-01,4.207699999999999774e-01,1.761300000000000088e-01,-1.647800000000000098e-01,-2.748099999999999987e-01,5.125999999999999446e-01,4.055199999999999916e-01,-6.017599999999999616e-01,-2.025800000000000101e-01,-7.261800000000000477e-01,1.830199999999999882e-01,1.976999999999999869e-01,3.201800000000000201e-01,7.942100000000000548e-02,7.068400000000000238e-01,9.235000000000000153e-02,-6.466699999999999671e-01,-5.241999999999999993e-01,-9.844200000000000172e-02,2.881299999999999972e-01,-1.008799999999999919e+00,8.486799999999999899e-01,-1.670099999999999918e-01,1.875000000000000000e-01,-6.234499999999999487e-01,-2.887299999999999867e-01,2.424499999999999988e-01,-3.710100000000000203e-02,3.704200000000000270e-01,2.990499999999999825e-01,-6.162600000000000300e-01,-7.725799999999999335e-02,-1.766600000000000115e-01,1.371699999999999864e-01,-5.650800000000000267e-01,-1.209999999999999964e+00,3.616599999999999815e-01,1.688699999999999923e-01,-5.488199999999999745e-01,2.435499999999999887e-01,-7.521600000000000508e-01,3.558700000000000196e-01,-3.432999999999999940e-01,2.629199999999999871e-01,-5.841100000000000181e-01,5.895700000000000385e-01,-3.006199999999999983e-01,4.366399999999999726e-01,5.054300000000000459e-01,-1.807600000000000040e-01,7.905399999999999927e-02,-7.904299999999999660e-01,4.623800000000000132e-01,-9.717700000000000227e-01,8.180099999999999871e-02,-3.203099999999999836e-01,-4.048300000000000232e-01,5.745799999999999796e-01,-1.522399999999999864e-01,1.376999999999999891e-01,-2.796100000000000252e-01,1.173300000000000037e-01
-8.352800000000000225e-01,5.702300000000000146e-01,1.921899999999999997e-01,-2.594600000000000031e-02,-5.003900000000000015e-01,3.653100000000000236e-01,1.681100000000000094e-01,9.834899999999999753e-01,-1.698699999999999932e-01,-4.012299999999999756e-01,8.259300000000000530e-01,7.766499999999999515e-01,3.074299999999999811e-01,1.145100000000000007e+00,1.056699999999999973e+00,-4.686799999999999855e-01,-4.828600000000000114e-01,-2.639699999999999824e-01,-1.481399999999999939e-01,-8.240300000000000402e-01,-3.115600000000000036e-01,5.613299999999999956e-01,-1.238400000000000056e-01,-5.435500000000000054e-02,4.279600000000000071e-01,3.844600000000000239e-01,-3.811700000000000088e-01,-5.340799999999999992e-01,-3.412200000000000233e-01,1.589099999999999957e-01,3.095200000000000173e-01,-1.687299999999999911e-01,3.654100000000000126e-01,3.513700000000000156e-02,-9.561599999999999960e-03,7.994599999999999485e-01,-5.087099999999999955e-01,-3.199799999999999867e-02,9.518699999999999939e-01,-5.608100000000000307e-01,2.393200000000000049e-01,1.448699999999999988e-02,-1.523599999999999954e-01,-7.349200000000000177e-01,-2.499200000000000033e-01,3.661699999999999955e-01,-1.217100000000000071e+00,4.276400000000000201e-01,4.768299999999999761e-01,-2.876099999999999768e-01,-4.680099999999999816e-01,-4.410800000000000276e-01,6.410000000000000142e-01,1.061099999999999932e+00,-1.408099999999999907e-01,-1.885000000000000009e+00,-2.059600000000000042e-01,-8.787599999999999578e-02,1.240199999999999969e+00,1.370800000000000074e-01,4.089900000000000202e-01,5.897999999999999909e-01,-1.421399999999999886e-01,-1.300699999999999912e-01,3.158299999999999996e-01,6.093300000000000383e-01,1.013700000000000045e+00,-3.120399999999999840e-01,-3.445400000000000129e-01,-4.577100000000000057e-01,-2.663300000000000112e-01,6.723800000000000610e-02,6.028000000000000025e-01,-2.155499999999999916e-01,2.764699999999999935e-01,5.191200000000000259e-01,3.303800000000000070e-01,-1.537000000000000033e-01,3.615300000000000180e-01,1.450599999999999945e-01,2.145199999999999885e-02,7.153300000000000214e-01,3.315299999999999914e-01,3.234400000000000053e-01,-4.146500000000000186e-01,-4.599599999999999800e-01,2.721000000000000085e-01,-3.739799999999999791e-01,-8.418999999999999817e-01,4.275900000000000256e-01,4.418699999999999850e-01,-6.823799999999999866e-01,8.118300000000000516e-01,-1.632200000000000040e-01,-6.037300000000000305e-02,1.544000000000000095e-01,2.529299999999999951e-02,-2.582599999999999896e-01,1.141299999999999981e+00,-2.056600000000000095e-01
-4.093499999999999917e-01,-7.920599999999999863e-01,8.566899999999999515e-02,3.714000000000000079e-01,-4.839600000000000013e-01,3.373599999999999932e-01,-5.977600000000000274e-02,-5.483000000000000096e-01,6.024100000000000010e-01,-1.234500000000000042e-01,2.329799999999999927e-01,7.295300000000000118e-01,-3.657799999999999940e-01,-1.847199999999999953e-01,4.289899999999999824e-01,-1.196499999999999897e+00,4.905700000000000061e-01,-1.030000000000000027e+00,-5.533200000000000340e-01,-5.472299999999999942e-01,1.081800000000000095e+00,-5.587299999999999489e-01,-1.020799999999999930e+00,1.300999999999999934e+00,-1.325599999999999890e+00,-2.436300000000000132e-01,1.047399999999999998e-01,1.079100000000000059e-01,1.116899999999999976e-01,-1.543100000000000027e-01,-8.890000000000000124e-01,6.866499999999999826e-01,4.292100000000000082e-02,-2.843499999999999847e-02,1.273799999999999932e-01,-6.031399999999999956e-02,8.347499999999999920e-01,2.158200000000000118e-01,-5.980900000000000105e-01,-7.188900000000000290e-01,-2.746199999999999752e-01,1.999599999999999989e-01,-3.528899999999999815e-01,-5.629800000000000360e-01,2.905599999999999850e-01,-3.024499999999999966e-01,-6.709699999999999553e-01,-2.967899999999999983e-01,-1.256799999999999862e-01,1.266299999999999981e+00,-5.824399999999999578e-01,-1.277500000000000024e-01,1.032699999999999951e+00,-6.528000000000000469e-02,-3.451600000000000223e-01,9.148900000000000088e-02,4.665900000000000047e-01,-3.649499999999999966e-01,-1.147299999999999986e+00,-1.859200000000000019e-01,4.220499999999999807e-01,6.919799999999999562e-02,-4.776900000000000035e-01,3.812999999999999723e-01,1.508200000000000096e-01,3.737599999999999811e-01,5.608499999999999597e-01,-4.850900000000000212e-01,-9.060000000000000275e-01,5.770600000000000174e-01,-8.339100000000000679e-02,-5.429500000000000437e-01,4.062500000000000000e-01,-3.877099999999999991e-02,-7.582799999999999541e-01,2.097499999999999920e-01,-1.994599999999999984e-01,-4.244899999999999785e-01,-1.214499999999999955e-02,-4.544300000000000006e-01,4.649499999999999744e-01,3.875799999999999801e-01,-1.237700000000000022e+00,2.813300000000000245e-01,-2.098599999999999910e-01,2.424099999999999866e-02,7.946899999999999797e-03,-1.649100000000000010e-01,3.864400000000000057e-01,6.065799999999999664e-03,1.178600000000000092e+00,-3.273499999999999743e-01,6.065000000000000391e-01,1.115499999999999936e+00,5.161299999999999777e-01,-1.744199999999999917e-01,1.193199999999999955e-01,3.872999999999999776e-01,2.323999999999999955e-01,-1.051900000000000057e-01
7.451399999999999690e-02,1.553200000000000136e-01,4.515000000000000124e-01,-1.294200000000000038e-02,-1.851899999999999935e-01,-5.838999999999999746e-02,4.858099999999999918e-02,3.997299999999999742e-01,5.353099999999999525e-01,2.262299999999999867e-01,-5.625299999999999745e-01,2.038600000000000134e-01,5.191299999999999804e-01,9.172099999999999698e-01,1.314400000000000013e-01,7.828999999999999848e-02,-9.909400000000000430e-01,-2.401999999999999968e-01,1.129299999999999971e+00,-5.936700000000000310e-01,-1.807799999999999963e-01,1.832600000000000062e-01,-4.504900000000000015e-01,-6.412299999999999667e-01,8.142200000000000548e-01,1.576100000000000056e+00,-8.214500000000000135e-01,-2.376699999999999924e-01,9.162799999999999834e-01,-5.500000000000000444e-01,-1.727400000000000047e-01,-5.338300000000000267e-01,4.731099999999999750e-01,8.264499999999999624e-02,1.631199999999999872e-01,8.009500000000000508e-01,2.392400000000000082e-01,8.831599999999999451e-01,5.042999999999999705e-01,-2.731500000000000039e-01,7.109999999999999654e-01,-2.338500000000000023e-01,-7.191300000000000470e-01,-1.519500000000000017e-01,-5.530499999999999999e-02,1.999900000000000011e-01,-8.809099999999999708e-01,3.272399999999999753e-01,-2.300500000000000045e-01,4.610100000000000309e-02,-4.280800000000000161e-01,5.933900000000000285e-02,-3.627299999999999969e-01,7.323100000000000165e-01,-4.526899999999999813e-01,-9.898599999999999621e-01,4.961299999999999738e-02,-1.349099999999999952e-02,8.981000000000000094e-01,2.842700000000000227e-01,7.862999999999999989e-01,1.073700000000000099e+00,2.024700000000000111e-01,1.012299999999999978e+00,3.264599999999999724e-01,2.371600000000000097e-01,9.277100000000000346e-01,-5.389899999999999691e-01,-3.929000000000000270e-01,-5.584999999999999687e-02,2.183599999999999985e-01,6.120500000000000246e-02,-1.210299999999999987e-01,6.500700000000000367e-01,-3.339799999999999991e-01,-4.585299999999999931e-01,-6.821099999999999941e-01,3.426699999999999746e-01,3.253499999999999726e-01,-3.811599999999999988e-01,-1.480799999999999894e-01,-2.702100000000000057e-01,4.209399999999999809e-01,-5.773699999999999666e-03,-3.540300000000000114e-01,-1.150600000000000067e+00,1.125499999999999973e-01,5.087000000000000410e-01,-3.522399999999999975e-01,5.165699999999999736e-01,-2.490799999999999959e-01,7.636999999999999345e-02,-3.164399999999999991e-01,2.587100000000000163e-02,-2.968500000000000028e-01,-1.655999999999999833e-02,-6.903700000000000392e-01,-9.797000000000000153e-02,1.833299999999999860e-02,2.377499999999999891e-01
-2.394399999999999862e-01,8.202399999999999691e-01,6.999300000000000521e-01,-3.386399999999999827e-02,1.177300000000000013e-01,4.880599999999999938e-01,-7.642999999999999794e-01,8.055199999999999860e-02,-3.584899999999999753e-01,2.854400000000000270e-01,9.140200000000000546e-01,8.833600000000000341e-01,6.617499999999999494e-01,-1.902499999999999894e-03,5.828299999999999592e-01,-3.813300000000000023e-01,1.800599999999999978e-01,1.869999999999999996e-01,-2.564600000000000213e-01,-8.873299999999999521e-01,-1.577099999999999891e-01,7.411600000000000410e-01,1.706900000000000084e-01,-5.589800000000000324e-01,6.072199999999999820e-01,1.783099999999999963e-01,-5.407999999999999474e-01,-1.316100000000000048e-01,1.994400000000000062e-01,-3.986999999999999988e-01,6.670099999999999918e-01,-6.386800000000000255e-01,2.045500000000000096e-01,2.570499999999999868e-02,-6.153700000000000142e-02,4.193000000000000060e-01,4.374799999999999800e-01,-4.372699999999999920e-01,4.396599999999999953e-01,2.554299999999999904e-01,2.312099999999999989e-01,-5.681000000000000494e-01,-9.827800000000000424e-02,-1.951500000000000110e-02,1.691300000000000026e-01,4.190900000000000181e-01,2.088200000000000056e-01,1.009600000000000053e+00,-4.057100000000000151e-01,1.660200000000000009e-01,3.979900000000000104e-01,2.290099999999999913e-01,4.987599999999999811e-01,1.070000000000000062e+00,-2.888700000000000156e-01,-2.111400000000000166e+00,-2.178799999999999903e-01,-2.341000000000000025e-01,1.019500000000000073e+00,1.989200000000000135e-01,1.012699999999999989e-01,1.411999999999999922e+00,1.342200000000000060e-01,1.420099999999999973e-01,-4.195700000000000124e-02,4.562899999999999734e-01,8.047800000000000509e-01,-5.835799999999999876e-01,-6.785700000000000412e-03,-5.485200000000000076e-01,2.675199999999999800e-01,2.637800000000000145e-01,6.400500000000000078e-01,2.794400000000000009e-02,2.934200000000000141e-01,-2.460999999999999993e-02,8.145900000000000363e-01,-4.448699999999999877e-02,3.171100000000000030e-01,2.182800000000000018e-01,-1.432800000000000046e-02,6.527100000000000124e-01,-4.171000000000000263e-01,8.694799999999999751e-02,3.538499999999999979e-01,-2.214299999999999879e-01,1.436199999999999977e-01,3.061099999999999932e-01,2.823700000000000099e-01,6.016299999999999981e-01,5.402700000000000280e-01,-1.917899999999999883e-01,-2.992099999999999968e-02,4.141500000000000181e-01,4.118499999999999939e-01,-1.044599999999999973e-01,-7.862599999999999589e-01,-2.466299999999999881e-01,3.589200000000000168e-01,7.442500000000000504e-02
3.191599999999999993e-01,-1.966599999999999945e-02,-3.341100000000000181e-01,-3.918800000000000061e-01,4.031799999999999828e-01,6.946999999999999842e-01,-6.769600000000000062e-01,-4.059200000000000030e-01,1.113600000000000007e-01,5.656999999999999806e-01,3.520099999999999896e-01,-3.087900000000000089e-01,8.658900000000000485e-01,1.773200000000000054e-01,2.336799999999999988e-01,1.932200000000000029e-01,-5.692000000000000393e-01,9.001299999999999579e-02,-4.692099999999999743e-02,-2.874099999999999988e-01,5.237800000000000233e-01,8.479299999999999615e-01,6.604799999999999560e-01,-1.500900000000000012e-01,6.274999999999999467e-01,1.141000000000000014e+00,-5.617900000000000116e-01,-3.585099999999999953e-01,1.702299999999999994e-02,-1.898299999999999987e-01,4.694699999999999984e-01,1.929599999999999926e-01,-1.261899999999999966e-01,-5.876500000000000057e-01,-5.377599999999999741e-02,-8.888599999999999834e-01,-7.165499999999999647e-02,2.499300000000000133e-01,-1.212799999999999989e-01,1.893799999999999928e-01,-8.036200000000000010e-01,2.878200000000000203e-01,3.366399999999999948e-01,1.132299999999999973e-01,-4.462400000000000255e-01,-2.982099999999999751e-01,3.525099999999999900e-01,4.730099999999999860e-01,1.092199999999999976e-01,6.242700000000000332e-02,4.465700000000000225e-01,-2.626399999999999846e-01,-1.478599999999999914e-01,1.198499999999999899e+00,-4.099799999999999972e-02,-1.396099999999999897e+00,8.864400000000000057e-02,1.492499999999999938e-01,9.425100000000000144e-02,1.926100000000000034e-01,8.345399999999999485e-01,4.034300000000000108e-01,-6.166300000000000114e-01,6.211900000000000199e-01,-2.570399999999999907e-01,-1.844099999999999906e-01,-1.637000000000000122e-01,5.429500000000000437e-01,-6.035599999999999854e-01,-2.580899999999999861e-01,-1.206699999999999995e-01,-7.311600000000000044e-02,-3.940199999999999952e-02,-5.572000000000000286e-01,-4.212299999999999933e-01,-8.196799999999999642e-01,1.578799999999999926e-01,4.925499999999999878e-01,4.361099999999999977e-01,5.372700000000000253e-01,-1.368900000000000117e-01,6.031100000000000350e-01,-9.670499999999999652e-01,1.143699999999999994e-01,-3.423399999999999777e-01,-5.226299999999999696e-02,-1.392200000000000104e-01,6.306699999999999806e-02,-1.457900000000000029e-01,-4.647000000000000020e-01,-7.025400000000000533e-01,-3.804699999999999749e-01,6.694500000000000450e-02,-2.457499999999999962e-02,-2.720600000000000102e-02,-6.083800000000000319e-01,2.099699999999999900e-01,-7.200299999999999478e-01,8.407999999999999918e-01,-2.438699999999999896e-02
-1.090300000000000047e+00,-2.285299999999999832e-02,4.267299999999999982e-01,-1.191899999999999959e+00,-1.075199999999999934e+00,-3.230700000000000238e-01,5.721399999999999819e-01,-9.951699999999999435e-02,2.204599999999999893e-01,4.835599999999999898e-01,-8.056499999999999426e-03,3.120600000000000041e-01,-3.033799999999999830e-01,5.100400000000000073e-02,5.294200000000000017e-01,-4.498199999999999976e-01,2.050100000000000013e-03,6.650699999999999668e-02,1.721100000000000130e-01,6.711100000000000398e-02,1.888499999999999901e-01,2.023600000000000121e-01,3.833199999999999941e-01,7.780099999999999794e-01,-3.811100000000000043e-01,-8.712600000000000032e-04,-3.226499999999999924e-01,-3.819699999999999762e-01,-8.535399999999999932e-02,1.327699999999999991e-01,-3.625200000000000089e-01,-5.071099999999999497e-01,1.497900000000000065e-01,7.913999999999999160e-03,-6.866799999999999571e-01,-1.816899999999999904e-01,2.795000000000000262e-01,1.618499999999999939e-01,1.980500000000000038e-01,-1.500400000000000067e-01,1.967299999999999882e-01,-1.781000000000000083e-01,3.880899999999999905e-01,-6.314699999999999480e-02,-3.221299999999999858e-02,-6.758399999999999963e-01,2.428200000000000150e-02,-4.158300000000000191e-02,1.893199999999999883e-01,4.607999999999999874e-01,-5.564000000000000057e-01,4.481299999999999867e-02,2.943299999999999805e-01,-9.943600000000000216e-01,-1.001900000000000013e+00,5.111700000000000133e-01,6.088799999999999768e-01,4.007899999999999796e-01,-2.787200000000000233e-01,-5.618600000000000261e-01,3.260199999999999765e-01,-3.818099999999999827e-01,2.321100000000000108e-01,-2.316999999999999893e-01,-6.551000000000000156e-01,-1.431800000000000017e-01,-4.016299999999999731e-02,-4.366999999999999771e-01,-1.462400000000000089e-01,4.825100000000000222e-02,-3.695599999999999996e-01,6.465199999999999836e-01,-8.363399999999999723e-01,-5.636900000000000244e-01,-8.467500000000000027e-02,-1.168799999999999978e-01,4.795200000000000018e-01,-4.583499999999999797e-01,8.518799999999999983e-03,-2.085500000000000131e-01,6.926400000000000334e-01,-9.020400000000000640e-02,-5.006199999999999539e-01,-5.211200000000000276e-01,-8.761800000000000144e-02,8.831099999999999506e-01,-5.276699999999999724e-01,-3.845799999999999774e-01,-2.798200000000000132e-01,3.035200000000000120e-01,-6.068099999999999605e-01,3.766300000000000203e-01,5.794599999999999751e-01,4.947800000000000115e-02,7.165899999999999492e-01,3.911700000000000177e-01,7.253500000000000503e-01,-9.915800000000000169e-01,-5.793000000000000371e-01,5.231299999999999839e-02
-4.428199999999999914e-01,4.431999999999999829e-01,1.925999999999999934e-01,2.697499999999999898e-01,3.854099999999999748e-01,6.428199999999999470e-01,-4.384899999999999909e-01,3.171599999999999975e-01,1.597500000000000031e-01,-5.260000000000000231e-01,3.056200000000000028e-01,5.039900000000000491e-01,4.442800000000000082e-01,1.272899999999999865e-01,3.544499999999999873e-01,-3.386399999999999966e-01,3.489700000000000024e-01,1.936799999999999911e-01,-5.278500000000000414e-01,-5.041200000000000125e-01,-2.545299999999999785e-01,5.023300000000000542e-01,1.184400000000000036e-01,-4.324799999999999756e-01,3.913200000000000012e-01,-4.182600000000000207e-01,-7.123599999999999932e-01,-2.182999999999999940e-01,2.412400000000000100e-01,3.499300000000000188e-01,3.812799999999999870e-03,-2.938100000000000156e-01,8.281100000000000128e-01,7.121099999999999652e-02,1.908999999999999864e-01,5.076500000000000457e-01,-7.741699999999999970e-02,-1.935000000000000053e-01,5.978200000000000180e-01,3.992900000000000073e-04,2.477900000000000102e-01,-1.015500000000000014e-01,5.812599999999999989e-01,-1.192300000000000026e-01,1.339700000000000057e-01,2.957099999999999729e-01,-3.049799999999999733e-01,8.103200000000000403e-01,-7.832599999999999563e-01,-1.384199999999999875e-01,1.892300000000000093e-01,-1.572600000000000109e-01,6.402900000000000258e-01,9.981200000000000072e-01,-3.069299999999999806e-01,-1.515400000000000080e+00,-3.944699999999999873e-01,4.471699999999999980e-02,4.567300000000000249e-01,-1.018899999999999945e-01,9.900899999999999979e-02,7.321900000000000075e-01,3.612600000000000255e-01,3.186300000000000243e-01,1.323599999999999950e-02,2.182000000000000051e-01,9.119699999999999473e-01,-6.463800000000000101e-02,-1.865600000000000036e-01,2.144000000000000072e-01,8.633799999999999808e-02,3.859699999999999798e-01,7.303199999999999692e-01,-7.516500000000000403e-01,4.325899999999999745e-01,2.367700000000000082e-01,6.736900000000000110e-01,3.250799999999999801e-01,2.980700000000000016e-01,-7.443500000000000116e-02,1.295199999999999932e-04,4.313299999999999912e-01,-8.546399999999999830e-02,6.062300000000000327e-02,7.614100000000000035e-02,-4.665900000000000047e-01,-5.389399999999999746e-01,-1.278199999999999892e-01,-2.622100000000000038e-03,2.591600000000000015e-01,1.823400000000000021e-01,-3.428499999999999881e-01,2.847000000000000086e-01,5.648699999999999832e-01,-3.171100000000000030e-01,-2.144000000000000072e-01,-2.742800000000000238e-01,1.202799999999999980e-01,7.947600000000000220e-01,3.087500000000000244e-01
3.309699999999999864e-01,8.264900000000000024e-02,6.694099999999999495e-01,-8.088999999999999524e-01,-2.272299999999999875e-01,3.685499999999999887e-01,2.549600000000000199e-01,1.487999999999999878e-01,2.435700000000000087e-01,1.117299999999999960e-01,-4.351999999999999758e-01,6.126800000000000024e-01,-4.249999999999999889e-01,4.379899999999999904e-01,1.449799999999999978e-01,3.351500000000000035e-01,-8.669899999999999829e-02,-4.268899999999999917e-01,-2.639699999999999824e-01,7.995600000000000485e-01,2.425400000000000056e-01,5.333799999999999653e-01,-4.134399999999999742e-01,1.889000000000000123e-01,3.144700000000000273e-01,7.951099999999999834e-01,-1.859000000000000097e-01,2.805200000000000055e-02,7.873800000000000243e-02,-3.972499999999999920e-01,4.539599999999999747e-01,1.186000000000000075e-02,1.363199999999999967e+00,2.483100000000000029e-01,-2.963500000000000023e-01,5.851699999999999680e-01,-7.742799999999999683e-01,-1.000800000000000023e-01,1.081299999999999928e+00,-7.587699999999999445e-01,-1.372299999999999909e-01,6.892000000000000348e-01,-5.730100000000000193e-01,-2.437499999999999944e-01,-9.518999999999999684e-01,-3.836700000000000110e-01,-4.299999999999999933e-01,2.304900000000000004e-01,5.181000000000000050e-01,6.368999999999999662e-02,-1.296799999999999953e+00,2.487099999999999866e-01,3.898300000000000098e-01,4.033599999999999963e-01,-8.710200000000000164e-01,-4.459000000000000186e-01,3.574300000000000255e-01,7.060400000000000009e-01,-1.959100000000000008e-01,9.433400000000000118e-02,3.816399999999999793e-01,-1.139399999999999996e-01,-8.813400000000000123e-01,-2.395599999999999952e-01,1.016899999999999915e+00,3.419800000000000062e-01,1.936799999999999911e-01,-6.183600000000000207e-02,6.634400000000000297e-01,-6.129499999999999948e-01,3.269299999999999984e-01,-7.614799999999999347e-02,4.965599999999999875e-02,5.477600000000000247e-01,-5.430899999999999617e-01,2.687100000000000044e-01,-3.810600000000000098e-02,6.780700000000000616e-02,3.234899999999999998e-01,-4.641899999999999915e-01,-6.506900000000000184e-02,-4.281800000000000050e-01,-5.385800000000000309e-02,-1.064299999999999968e-01,-4.674900000000000166e-01,-3.448100000000000054e-01,9.581800000000000039e-02,-5.829900000000000082e-01,4.734499999999999820e-02,-1.559899999999999898e-01,-4.107500000000000040e-01,2.294700000000000073e-01,2.703999999999999737e-01,-1.967599999999999905e-01,8.372300000000000297e-01,-7.331199999999999939e-01,-1.764199999999999935e-01,1.455200000000000105e-01,9.647200000000000220e-02,-2.827899999999999858e-01
4.747700000000000253e-01,-1.716699999999999893e-01,4.385499999999999954e-01,2.999100000000000099e-01,1.422200000000000131e-01,1.133200000000000041e-01,-2.674300000000000010e-01,6.019700000000000051e-02,7.918100000000000138e-01,-6.670000000000000373e-01,3.940199999999999814e-01,3.003100000000000214e-01,-4.607900000000000190e-02,3.020499999999999852e-01,-1.301700000000000079e-01,-2.514799999999999813e-01,-4.180900000000000172e-01,9.046999999999999487e-01,5.785000000000000142e-01,-1.001900000000000013e+00,-9.765500000000000569e-02,4.105800000000000005e-01,-3.547299999999999898e-01,-5.038200000000000317e-02,8.415099999999999802e-01,5.597499999999999698e-01,4.543599999999999722e-02,6.776000000000000079e-02,-6.393699999999999991e-04,-1.381699999999999928e+00,9.858799999999999786e-01,2.818100000000000049e-01,-3.453599999999999726e-02,6.765499999999999847e-01,-1.056499999999999939e-01,1.241499999999999965e-01,-6.705299999999999594e-01,-2.975900000000000212e-01,1.280100000000000127e-01,4.653200000000000114e-01,-5.473499999999999893e-02,4.650900000000000173e-02,-1.823799999999999866e-01,7.933600000000000374e-02,-4.901699999999999946e-01,3.373800000000000132e-01,6.374400000000000066e-01,2.574600000000000222e-01,3.031400000000000206e-01,-2.642800000000000149e-01,-9.095499999999999419e-02,-3.473200000000000176e-01,2.355099999999999902e-02,1.318699999999999872e-01,4.204800000000000204e-02,4.515199999999999769e-01,-1.883700000000000097e-01,2.366600000000000092e-01,-6.993899999999999562e-01,3.674299999999999788e-01,1.764300000000000035e-01,5.354600000000000470e-01,-8.244200000000000417e-01,-1.221899999999999939e-03,-3.656300000000000106e-01,-1.192899999999999933e-01,1.724199999999999899e-01,-3.469200000000000061e-01,-7.299900000000000277e-01,3.879000000000000226e-01,3.128099999999999770e-01,-2.907500000000000084e-01,5.212299999999999711e-01,-6.703200000000000269e-01,-3.664399999999999880e-01,1.860400000000000109e-01,-1.394199999999999884e-01,-3.653899999999999926e-01,3.465300000000000047e-01,-4.474400000000000044e-01,3.158900000000000041e-01,-6.062400000000000011e-01,-2.848899999999999766e-01,3.689200000000000257e-01,-1.989299999999999957e-01,-3.136700000000000044e-01,1.327399999999999969e-01,6.987400000000000555e-02,-2.434000000000000052e-01,4.022499999999999687e-02,5.252000000000000002e-01,2.716399999999999926e-01,-2.142600000000000060e-01,3.406799999999999828e-01,-6.246199999999999530e-01,5.498199999999999754e-01,1.503200000000000092e-01,5.594000000000000083e-01,-8.193099999999999827e-01,3.192900000000000182e-01
-9.249799999999999689e-02,1.462100000000000066e-01,5.735599999999999588e-01,-1.360000000000000098e-01,-2.869599999999999929e-01,6.439700000000000424e-01,-1.560999999999999888e-01,2.316900000000000071e-01,-5.316699999999999759e-01,-1.063600000000000101e+00,-3.992399999999999838e-01,4.762600000000000167e-02,-2.530399999999999872e-01,3.563899999999999846e-01,1.261899999999999966e-01,6.515500000000000458e-02,-2.322200000000000097e-01,2.164399999999999935e-01,1.940999999999999948e-01,-6.707400000000000029e-01,-1.614099999999999979e-01,2.384499999999999953e-01,-1.177699999999999969e+00,-4.672399999999999887e-01,-2.174599999999999866e-01,9.988500000000000156e-01,-6.035800000000000054e-01,2.406999999999999973e-01,1.008999999999999897e+00,-7.623099999999999321e-02,-1.488400000000000001e-01,-2.064799999999999969e-01,-4.746400000000000063e-01,1.280199999999999949e-01,-4.359999999999999987e-01,-1.079400000000000108e-03,-6.597699999999999398e-02,1.301200000000000134e-01,7.883299999999999752e-01,-4.656000000000000139e-01,1.347899999999999966e-03,-8.736199999999999521e-02,2.841199999999999837e-01,-7.911899999999999489e-01,-8.566400000000000403e-02,4.691000000000000170e-01,1.761500000000000010e-01,3.288399999999999917e-03,-1.808099999999999985e-01,-6.822700000000000431e-01,4.982099999999999723e-02,-3.631500000000000006e-02,-1.944899999999999962e-01,1.044200000000000017e+00,9.682200000000000528e-02,-1.203400000000000025e+00,1.652800000000000102e-01,4.240200000000000080e-01,3.746999999999999775e-01,-1.351900000000000046e-01,8.469799999999999551e-01,9.644000000000000350e-01,-1.787600000000000022e-01,3.684999999999999942e-01,-9.314699999999999369e-02,7.212100000000000177e-01,7.174899999999999611e-01,-8.833900000000000086e-01,5.244900000000000256e-02,-5.554499999999999993e-01,-1.654299999999999937e-01,-2.016700000000000090e-02,6.080299999999999594e-01,1.485299999999999954e-01,-3.062199999999999922e-01,5.784200000000000452e-01,-8.420800000000000507e-01,-1.017700000000000049e+00,-4.705500000000000238e-01,-4.708700000000000108e-01,2.186500000000000110e-01,-4.585000000000000187e-01,-6.851099999999999968e-01,5.710399999999999920e-01,-1.178399999999999892e+00,-1.889200000000000046e-01,6.081199999999999939e-01,1.977099999999999969e-01,-4.251900000000000124e-01,7.800000000000000266e-01,2.895599999999999841e-01,1.547000000000000042e-01,1.694599999999999995e-01,3.450699999999999878e-01,1.626299999999999968e-01,8.044799999999999729e-01,4.165499999999999758e-01,-1.149400000000000005e-01,-2.393200000000000049e-01,4.749099999999999988e-01
